{"learner":{"attributes":{"scikit_learn":"{\"_estimator_type\": \"classifier\"}"},"feature_names":[],"feature_types":[],"gradient_booster":{"model":{"cats":{"enc":[],"feature_segments":[],"sorted_idx":[]},"gbtree_model_param":{"num_parallel_tree":"1","num_trees":"100"},"iteration_indptr":[0,1,2,3,4,5,6,7,8,9,10,11,12,13,14,15,16,17,18,19,20,21,22,23,24,25,26,27,28,29,30,31,32,33,34,35,36,37,38,39,40,41,42,43,44,45,46,47,48,49,50,51,52,53,54,55,56,57,58,59,60,61,62,63,64,65,66,67,68,69,70,71,72,73,74,75,76,77,78,79,80,81,82,83,84,85,86,87,88,89,90,91,92,93,94,95,96,97,98,99,100],"tree_info":[0,0,0,0,0,0,0,0,0,0,0,0,0,0,0,0,0,0,0,0,0,0,0,0,0,0,0,0,0,0,0,0,0,0,0,0,0,0,0,0,0,0,0,0,0,0,0,0,0,0,0,0,0,0,0,0,0,0,0,0,0,0,0,0,0,0,0,0,0,0,0,0,0,0,0,0,0,0,0,0,0,0,0,0,0,0,0,0,0,0,0,0,0,0,0,0,0,0,0,0],"trees":[{"base_weights":[-1.7805675E-7,-1.7142742E0,1.6201684E0,-1.9549117E0,-6.5111977E-1,6.7872036E-1,1.8755034E0,-1.9730759E0,1.2623055E0,5.575113E-1,-1.1143147E0,1.1761042E0,-4.6807435E-1,1.6004508E0,1.9668376E0,-1.9831904E0,-5.345956E-1,1.8279241E-1,-1.3323238E-1,1.1706471E0,-1.6445286E0,8.399466E-1,-1.591876E0,-7.98288E-1,1.3299822E0,-1.880586E0,9.165276E-1,1.7780954E0,-1.6925326E-1,1.9696574E0,-1.1102698E-1,-1.9893243E0,-6.6305774E-1,1.709324E-1,-1.8247046E-1,1.4757702E0,-7.374698E-1,1.4022598E-1,-1.9313101E-1,1.1912905E0,-1.7824334E-1,1.6963784E-1,-1.8017799E0,1.0682719E0,-1.90332E-1,3.976811E-2,1.4728941E0,1.4022598E-1,-1.9772255E-1,8.427079E-2,1.610572E0,1.8149637E0,-1.0984201E0,-1.7071034E0,9.072446E-1,8.870984E-1,1.9729704E0,-2.9478991E-2,-1.9913846E-1,1.5577209E-1,-1.7633699E-1,-1.5282539E-1,1.5938063E-1,-1.8284021E-1,1.6491364E-1,1.5068497E-1,-1.7129879E-1,1.7066155E-1,-1.3434404E-1,-1.9357769E-1,3.0651143E-2,-1.383567E-1,1.7186211E-1,-9.965729E-2,1.5003179E-1,3.3910442E-2,1.5853123E-1,-1.4842944E-1,1.4774726E-1,-1.4274898E-1,1.7867267E-1,-1.4274898E-1,1.8330133E-1,1.0791582E-1,-1.6787282E-1,-1.9066016E-1,1.0791582E-1,-1.6787282E-1,1.4589657E-1,-1.1990913E-1,1.6491364E-1,1.9746357E-1,7.786512E-2],"categories":[],"categories_nodes":[],"categories_segments":[],"categories_sizes":[],"default_left":[0,0,0,0,0,0,0,0,0,0,0,0,0,0,0,0,0,0,0,0,0,0,0,0,0,0,0,0,0,0,0,0,0,0,0,0,0,0,0,0,0,0,0,0,0,0,0,0,0,0,0,0,0,0,0,0,0,0,0,0,0,0,0,0,0,0,0,0,0,0,0,0,0,0,0,0,0,0,0,0,0,0,0,0,0,0,0,0,0,0,0,0,0],"id":0,"left_children":[1,3,5,7,9,11,13,15,17,19,21,23,25,27,29,31,33,-1,-1,35,37,39,41,43,45,47,49,51,53,55,-1,57,59,-1,-1,61,63,-1,-1,65,-1,67,69,71,-1,73,75,-1,-1,77,79,81,83,85,87,89,91,-1,-1,-1,-1,-1,-1,-1,-1,-1,-1,-1,-1,-1,-1,-1,-1,-1,-1,-1,-1,-1,-1,-1,-1,-1,-1,-1,-1,-1,-1,-1,-1,-1,-1,-1,-1],"loss_changes":[1.6135648E4,7.209033E2,7.1670264E2,1.3697461E2,2.9313315E2,3.6491998E2,5.586328E1,3.2239258E1,2.2291607E1,1.9827731E2,3.5418198E2,1.3651477E2,3.8106384E2,1.8607642E2,1.7449707E1,1.7083008E1,5.3345512E1,0E0,0E0,6.765823E1,3.07472E1,7.113301E1,1.1277197E2,6.981053E1,7.62738E1,3.333667E1,5.6829437E1,5.8955444E1,9.2302795E1,4.554199E0,0E0,7.3095703E0,3.2093853E1,0E0,0E0,3.7507523E1,4.579283E1,0E0,0E0,6.3664E1,0E0,7.973408E1,7.739789E1,2.2883745E1,0E0,6.553673E1,4.6962463E1,0E0,0E0,1.02499504E2,3.1299774E1,3.3675293E1,1.1188013E1,1.4797691E1,4.938878E1,1.3391907E1,1.9467773E0,0E0,0E0,0E0,0E0,0E0,0E0,0E0,0E0,0E0,0E0,0E0,0E0,0E0,0E0,0E0,0E0,0E0,0E0,0E0,0E0,0E0,0E0,0E0,0E0,0E0,0E0,0E0,0E0,0E0,0E0,0E0,0E0,0E0,0E0,0E0,0E0],"parents":[2147483647,0,0,1,1,2,2,3,3,4,4,5,5,6,6,7,7,8,8,9,9,10,10,11,11,12,12,13,13,14,14,15,15,16,16,19,19,20,20,21,21,22,22,23,23,24,24,25,25,26,26,27,27,28,28,29,29,31,31,32,32,35,35,36,36,39,39,41,41,42,42,43,43,45,45,46,46,49,49,50,50,51,51,52,52,53,53,54,54,55,55,56,56],"right_children":[2,4,6,8,10,12,14,16,18,20,22,24,26,28,30,32,34,-1,-1,36,38,40,42,44,46,48,50,52,54,56,-1,58,60,-1,-1,62,64,-1,-1,66,-1,68,70,72,-1,74,76,-1,-1,78,80,82,84,86,88,90,92,-1,-1,-1,-1,-1,-1,-1,-1,-1,-1,-1,-1,-1,-1,-1,-1,-1,-1,-1,-1,-1,-1,-1,-1,-1,-1,-1,-1,-1,-1,-1,-1,-1,-1,-1,-1],"split_conditions":[5.633803E-1,5.636591E-1,6.8546367E-1,3.881337E-1,4.333349E-1,5.02551E-1,7.4483305E-1,6.7407185E-1,1.7878012E-1,4.8657718E-1,3.8093823E-1,5.7357186E-1,6.8759936E-1,6.263911E-1,3.411633E-1,3.9026982E-1,4.723901E-1,1.8279241E-1,-1.3323238E-1,4.868503E-1,4.3542695E-1,5.7760817E-1,4.2766297E-1,4.924812E-1,5.1808876E-1,3.2251236E-1,7.3131955E-1,6.987892E-1,6.056338E-1,8.5066274E-2,-1.1102698E-1,1.9759157E-1,6.18678E-1,1.709324E-1,-1.8247046E-1,1.7286822E-1,6.80781E-1,1.4022598E-1,-1.9313101E-1,4.1237357E-1,-1.7824334E-1,4.5306987E-1,6.560593E-1,1.4374673E-1,-1.90332E-1,2.8768063E-1,1.5724759E-1,1.4022598E-1,-1.9772255E-1,4.7684085E-1,6.7817557E-1,3.8539192E-1,4.5663264E-1,6.811224E-1,7.188471E-1,1.7041029E-1,5.312343E-1,-2.9478991E-2,-1.9913846E-1,1.5577209E-1,-1.7633699E-1,-1.5282539E-1,1.5938063E-1,-1.8284021E-1,1.6491364E-1,1.5068497E-1,-1.7129879E-1,1.7066155E-1,-1.3434404E-1,-1.9357769E-1,3.0651143E-2,-1.383567E-1,1.7186211E-1,-9.965729E-2,1.5003179E-1,3.3910442E-2,1.5853123E-1,-1.4842944E-1,1.4774726E-1,-1.4274898E-1,1.7867267E-1,-1.4274898E-1,1.8330133E-1,1.0791582E-1,-1.6787282E-1,-1.9066016E-1,1.0791582E-1,-1.6787282E-1,1.4589657E-1,-1.1990913E-1,1.6491364E-1,1.9746357E-1,7.786512E-2],"split_indices":[649,639,638,380,2,5,645,648,260,606,646,639,645,95,650,644,1,0,0,607,642,31,73,220,479,356,645,120,209,544,0,659,4,0,0,504,4,0,0,554,0,642,639,190,0,16,588,0,0,8,508,96,5,49,552,6,505,0,0,0,0,0,0,0,0,0,0,0,0,0,0,0,0,0,0,0,0,0,0,0,0,0,0,0,0,0,0,0,0,0,0,0,0],"split_type":[0,0,0,0,0,0,0,0,0,0,0,0,0,0,0,0,0,0,0,0,0,0,0,0,0,0,0,0,0,0,0,0,0,0,0,0,0,0,0,0,0,0,0,0,0,0,0,0,0,0,0,0,0,0,0,0,0,0,0,0,0,0,0,0,0,0,0,0,0,0,0,0,0,0,0,0,0,0,0,0,0,0,0,0,0,0,0,0,0,0,0,0,0],"sum_hessian":[5.807596E3,2.8218184E3,2.985778E3,2.3003186E3,5.214997E2,6.377996E2,2.3479785E3,2.2877886E3,1.2529992E1,1.4442992E2,3.7706976E2,4.4483972E2,1.9295988E2,5.899296E2,1.7580488E3,2.2714387E3,1.634999E1,1.0529993E1,1.9999988E0,1.1333993E2,3.1089981E1,7.3899956E1,3.0316983E2,3.185998E1,4.1297974E2,9.533994E1,9.761994E1,5.361097E2,5.3819965E1,1.7567988E3,1.2499993E0,2.2604287E3,1.1009994E1,5.849996E0,1.0499993E1,9.7909935E1,1.5429991E1,2.3399985E0,2.8749983E1,6.5649956E1,8.249995E0,3.229998E1,2.7086984E2,1.1859992E1,1.9999989E1,4.1309975E1,3.7166977E2,2.3399985E0,9.299995E1,4.489997E1,5.2719967E1,5.2968964E2,6.4199963E0,2.1919987E1,3.189998E1,6.179996E0,1.7506189E3,2.9199982E0,2.2575085E3,3.5099978E0,7.4999957E0,3.249998E0,9.465994E1,1.0749993E1,4.679997E0,5.9649963E1,5.999996E0,1.595999E1,1.633999E1,2.5475984E2,1.610999E1,2.2499986E0,9.609994E0,2.4349985E1,1.695999E1,3.388998E1,3.377798E2,2.1089987E1,2.3809984E1,2.4999986E0,5.0219967E1,2.4999986E0,5.2718964E2,1.1699992E0,5.2499967E0,2.0749989E1,1.1699992E0,5.2499967E0,2.6649982E1,1.499999E0,4.679997E0,1.7475288E3,3.089998E0],"tree_param":{"num_deleted":"0","num_feature":"660","num_nodes":"93","size_leaf_vector":"1"}},{"base_weights":[-1.2008771E-4,-1.5585113E0,1.4712569E0,-1.7778424E0,-5.916007E-1,6.149769E-1,1.7041354E0,-1.7944058E0,1.1481615E0,5.0488734E-1,-1.0122707E0,1.0648905E0,-4.2503345E-1,1.4388314E0,1.7838742E0,-1.8036256E0,-4.8561996E-1,1.6739272E-1,-1.24740064E-1,1.0604672E0,-1.4953887E0,7.578959E-1,-1.445975E0,1.6616175E-1,1.3487128E0,-1.7102265E0,8.309391E-1,1.6044244E0,-3.9707267E-1,1.7864116E0,-6.798214E-2,-1.8092195E0,-6.026706E-1,1.5732846E-1,-1.6714145E-1,-5.9121245E-1,1.3567301E0,1.3085683E-1,-1.761282E-1,1.0781287E0,-1.6356103E-1,1.5473233E-1,-1.637305E0,-1.1400452E0,1.587751E0,1.5649669E0,3.5817677E-1,1.3085683E-1,-1.7998096E-1,1.0570624E0,-1.2946246E0,1.6429871E0,-1.5859766E-1,-1.2184991E0,1.0927155E0,5.2016246E-4,1.7885588E0,9.849595E-2,-1.0504977E-1,-2.7288167E-2,-1.8111034E-1,1.4433812E-1,-1.61943E-1,1.1357172E-1,-1.7448442E-1,-1.4365594E-1,1.476397E-1,1.3663678E-1,-1.5765664E-1,-1.4422326E-1,1.3786149E-1,-1.7465179E-1,5.3304594E-2,-1.7976682E-1,2.9405404E-2,-6.5227695E-2,1.7833114E-1,-2.833417E-2,1.6022685E-1,1.2338227E-1,-1.3143487E-1,-2.7509946E-2,1.4178447E-1,1.0025165E-1,-1.7168498E-1,1.7779683E-1,1.1125865E-1,1.3936041E-1,-1.7855665E-1,-1.3794829E-1,1.6705422E-1,8.089869E-2,1.7914937E-1],"categories":[],"categories_nodes":[],"categories_segments":[],"categories_sizes":[],"default_left":[0,0,0,0,0,0,0,0,0,0,0,0,0,0,0,0,0,0,0,0,0,0,0,0,0,0,0,0,0,0,0,0,0,0,0,0,0,0,0,0,0,0,0,0,0,0,0,0,0,0,0,0,0,0,0,0,0,0,0,0,0,0,0,0,0,0,0,0,0,0,0,0,0,0,0,0,0,0,0,0,0,0,0,0,0,0,0,0,0,0,0,0,0],"id":1,"left_children":[1,3,5,7,9,11,13,15,17,19,21,23,25,27,29,31,33,-1,-1,35,37,39,41,43,45,47,49,51,53,55,57,59,61,-1,-1,63,65,-1,-1,67,-1,69,71,73,75,77,79,-1,-1,81,83,85,-1,87,89,-1,91,-1,-1,-1,-1,-1,-1,-1,-1,-1,-1,-1,-1,-1,-1,-1,-1,-1,-1,-1,-1,-1,-1,-1,-1,-1,-1,-1,-1,-1,-1,-1,-1,-1,-1,-1,-1],"loss_changes":[1.3200974E4,5.918833E2,5.894492E2,1.1248389E2,2.3964981E2,2.9744806E2,4.6671875E1,2.6468262E1,1.9009388E1,1.6208127E2,2.890153E2,1.1286249E2,3.1195786E2,1.6573242E2,8.510742E0,1.40234375E1,4.4670834E1,0E0,0E0,5.6395767E1,2.6019432E1,5.8834316E1,9.2612854E1,2.0151051E2,7.158319E1,2.8157715E1,4.8456787E1,6.3914917E1,5.7294746E1,6.810547E0,4.5587645E0,5.9853516E0,2.7156366E1,0E0,0E0,3.779353E1,3.442282E1,0E0,0E0,5.2866783E1,0E0,6.670407E1,6.48006E1,5.3935593E1,2.3905655E1,1.9492615E1,9.190977E1,0E0,0E0,4.3213554E1,1.1293877E1,3.3307983E1,0E0,4.6852257E1,2.627531E1,0E0,3.6708984E0,0E0,0E0,0E0,0E0,0E0,0E0,0E0,0E0,0E0,0E0,0E0,0E0,0E0,0E0,0E0,0E0,0E0,0E0,0E0,0E0,0E0,0E0,0E0,0E0,0E0,0E0,0E0,0E0,0E0,0E0,0E0,0E0,0E0,0E0,0E0,0E0],"parents":[2147483647,0,0,1,1,2,2,3,3,4,4,5,5,6,6,7,7,8,8,9,9,10,10,11,11,12,12,13,13,14,14,15,15,16,16,19,19,20,20,21,21,22,22,23,23,24,24,25,25,26,26,27,27,28,28,29,29,30,30,31,31,32,32,35,35,36,36,39,39,41,41,42,42,43,43,44,44,45,45,46,46,49,49,50,50,51,51,53,53,54,54,56,56],"right_children":[2,4,6,8,10,12,14,16,18,20,22,24,26,28,30,32,34,-1,-1,36,38,40,42,44,46,48,50,52,54,56,58,60,62,-1,-1,64,66,-1,-1,68,-1,70,72,74,76,78,80,-1,-1,82,84,86,-1,88,90,-1,92,-1,-1,-1,-1,-1,-1,-1,-1,-1,-1,-1,-1,-1,-1,-1,-1,-1,-1,-1,-1,-1,-1,-1,-1,-1,-1,-1,-1,-1,-1,-1,-1,-1,-1,-1,-1],"split_conditions":[5.633803E-1,5.636591E-1,6.8546367E-1,3.881337E-1,4.333349E-1,5.02551E-1,7.400636E-1,6.7407185E-1,1.7878012E-1,4.8657718E-1,3.8093823E-1,5.9856915E-1,6.8759936E-1,6.263911E-1,3.411633E-1,3.9026982E-1,4.723901E-1,1.6739272E-1,-1.24740064E-1,5.9646755E-1,4.3542695E-1,5.7760817E-1,4.2766297E-1,4.110701E-1,5.5604506E-1,3.2251236E-1,3.6642358E-1,6.947363E-1,7.127951E-1,3.8703072E-1,5.8312446E-1,1.9759157E-1,6.18678E-1,1.5732846E-1,-1.6714145E-1,3.5716274E-1,1.7286822E-1,1.3085683E-1,-1.761282E-1,4.1237357E-1,-1.6356103E-1,6.105274E-1,6.581133E-1,3.0434906E-1,5.982688E-1,4.648464E-1,3.5215244E-1,1.3085683E-1,-1.7998096E-1,5.34471E-1,5.127551E-1,5.0765306E-1,-1.5859766E-1,2.833062E-1,1.4408448E-1,5.2016246E-4,8.5066274E-2,9.849595E-2,-1.0504977E-1,-2.7288167E-2,-1.8111034E-1,1.4433812E-1,-1.61943E-1,1.1357172E-1,-1.7448442E-1,-1.4365594E-1,1.476397E-1,1.3663678E-1,-1.5765664E-1,-1.4422326E-1,1.3786149E-1,-1.7465179E-1,5.3304594E-2,-1.7976682E-1,2.9405404E-2,-6.5227695E-2,1.7833114E-1,-2.833417E-2,1.6022685E-1,1.2338227E-1,-1.3143487E-1,-2.7509946E-2,1.4178447E-1,1.0025165E-1,-1.7168498E-1,1.7779683E-1,1.1125865E-1,1.3936041E-1,-1.7855665E-1,-1.3794829E-1,1.6705422E-1,8.089869E-2,1.7914937E-1],"split_indices":[649,639,638,380,2,5,645,648,260,606,646,645,645,95,650,644,1,0,0,648,642,31,73,644,2,356,629,120,376,83,0,659,4,0,0,2,504,0,0,554,0,538,617,500,648,347,642,0,0,369,5,5,0,189,654,0,544,0,0,0,0,0,0,0,0,0,0,0,0,0,0,0,0,0,0,0,0,0,0,0,0,0,0,0,0,0,0,0,0,0,0,0,0],"split_type":[0,0,0,0,0,0,0,0,0,0,0,0,0,0,0,0,0,0,0,0,0,0,0,0,0,0,0,0,0,0,0,0,0,0,0,0,0,0,0,0,0,0,0,0,0,0,0,0,0,0,0,0,0,0,0,0,0,0,0,0,0,0,0,0,0,0,0,0,0,0,0,0,0,0,0,0,0,0,0,0,0,0,0,0,0,0,0,0,0,0,0,0,0],"sum_hessian":[5.7551235E3,2.7948901E3,2.9602334E3,2.2774429E3,5.1744714E2,6.337211E2,2.3265122E3,2.265008E3,1.2434913E1,1.4341965E2,3.740275E2,4.4233908E2,1.9138203E2,5.42054E2,1.7844583E3,2.248788E3,1.6219864E1,1.0443964E1,1.9909489E0,1.12611465E2,3.0808176E1,7.3458534E1,3.0056897E2,1.0654564E2,3.3579343E2,9.441193E1,9.6970116E1,4.9732306E2,4.4730927E1,1.7820519E3,2.4064372E0,2.237858E3,1.0930204E1,5.808223E0,1.041164E1,1.6975681E1,9.563579E1,2.3287802E0,2.8479397E1,6.5274826E1,8.183712E0,3.2111217E1,2.6845776E2,5.5629406E1,5.091623E1,2.7514398E2,6.064945E1,2.3287802E0,9.2083145E1,8.810044E1,8.869676E0,4.9186285E2,5.4601974E0,2.8950533E1,1.5780394E1,2.1497235E0,1.7799021E3,1.1603869E0,1.2460502E0,2.9192986E0,2.2349387E3,3.489202E0,7.4410024E0,6.8047843E0,1.01708975E1,3.4767222E0,9.2159065E1,5.9319397E1,5.9554253E0,1.3854704E1,1.8256512E1,2.55782E2,1.2675753E1,3.7966095E1,1.7663313E1,3.9006917E0,4.7015537E1,5.3124714E0,2.698315E2,3.9980217E1,2.066923E1,1.8825647E1,6.927479E1,1.1637673E0,7.705908E0,3.9020737E2,1.0165549E2,4.9039097E0,2.4046621E1,2.7267566E0,1.3053637E1,6.143385E0,1.7737588E3],"tree_param":{"num_deleted":"0","num_feature":"660","num_nodes":"93","size_leaf_vector":"1"}},{"base_weights":[-2.2812864E-4,-1.4230857E0,1.3745444E0,-1.5199771E0,1.1060463E0,6.2911844E-1,1.5673083E0,-1.6024455E0,-4.435042E-2,-1.0059797E0,1.5620611E0,1.0558631E0,-3.8843074E-1,-1.1231947E0,1.5760967E0,-1.6705148E0,-1.1574868E0,1.0990131E0,-1.3845111E0,-1.621236E-1,7.143362E-1,-1.12093605E-1,1.6383976E0,1.7573154E-2,1.2565042E0,-1.140671E0,1.1268004E0,1.2988558E-1,-1.712849E-1,1.3645604E0,1.661483E0,-1.6743819E0,-2.5370005E-1,1.0658234E-1,-1.6401063E0,-1.3873361E-1,1.2754611E0,-1.6801262E0,9.855205E-1,1.3756616E-1,-9.352074E-2,4.802517E-1,1.7051862E0,8.189807E-1,-1.1756192E0,1.5081692E0,6.9563913E-1,-1.3779794E0,1.0314045E0,-1.4467312E-1,1.3030504E0,1.5292485E0,3.4844667E-1,-1.7022528E-3,1.6637185E0,-2.5267614E-2,-1.676173E-1,1.4426722E-1,-1.3395452E-1,-9.198987E-2,1.15579985E-1,1.1811439E-1,-1.6880606E-1,1.4226459E-1,-1.4832908E-1,-1.7484443E-1,9.3795285E-2,1.4746015E-1,-9.42786E-2,-1.2175415E-1,1.3289866E-1,1.7272766E-1,8.094867E-2,-7.796585E-2,1.251E-1,-1.5942864E-1,1.382072E-1,-5.145654E-2,1.5664259E-1,-1.3414776E-1,1.08203016E-1,6.31604E-2,-1.5157907E-1,1.5800731E-1,-1.2069347E-1,1.4660908E-1,-6.86765E-2,-1.4609948E-1,1.548884E-1,-9.4361015E-2,1.0838355E-1,5.1065434E-2,1.6655456E-1],"categories":[],"categories_nodes":[],"categories_segments":[],"categories_sizes":[],"default_left":[0,0,0,0,0,0,0,0,0,0,0,0,0,0,0,0,0,0,0,0,0,0,0,0,0,0,0,0,0,0,0,0,0,0,0,0,0,0,0,0,0,0,0,0,0,0,0,0,0,0,0,0,0,0,0,0,0,0,0,0,0,0,0,0,0,0,0,0,0,0,0,0,0,0,0,0,0,0,0,0,0,0,0,0,0,0,0,0,0,0,0,0,0],"id":2,"left_children":[1,3,5,7,9,11,13,15,17,19,21,23,25,27,29,31,33,35,37,-1,39,-1,41,43,45,47,49,-1,-1,51,53,55,57,59,61,-1,63,65,67,-1,-1,69,71,73,75,77,79,81,83,-1,85,87,89,-1,91,-1,-1,-1,-1,-1,-1,-1,-1,-1,-1,-1,-1,-1,-1,-1,-1,-1,-1,-1,-1,-1,-1,-1,-1,-1,-1,-1,-1,-1,-1,-1,-1,-1,-1,-1,-1,-1,-1],"loss_changes":[1.0998105E4,6.787344E2,4.0990576E2,3.238003E2,1.00310684E2,2.5626196E2,5.5476562E1,7.440723E1,2.1894283E2,2.1070648E1,1.9185547E1,8.651141E1,2.0055118E2,1.362003E1,3.8632324E1,1.1539551E1,2.0618076E2,3.560544E1,4.7733376E1,0E0,7.4501166E0,0E0,5.5834656E0,6.6258E1,4.8084778E1,6.1894867E1,2.8420303E1,0E0,0E0,1.09370605E2,6.063965E0,5.121582E0,1.5052742E1,1.025615E2,3.5064087E1,0E0,3.1563232E1,1.2164795E1,8.863094E0,0E0,0E0,1.0127153E1,1.4245605E-1,2.9593893E1,3.202176E1,2.9019226E1,8.7777084E1,3.0367172E1,1.6800684E1,0E0,1.8939964E1,3.54292E1,8.928766E1,0E0,2.534668E0,0E0,0E0,0E0,0E0,0E0,0E0,0E0,0E0,0E0,0E0,0E0,0E0,0E0,0E0,0E0,0E0,0E0,0E0,0E0,0E0,0E0,0E0,0E0,0E0,0E0,0E0,0E0,0E0,0E0,0E0,0E0,0E0,0E0,0E0,0E0,0E0,0E0,0E0],"parents":[2147483647,0,0,1,1,2,2,3,3,4,4,5,5,6,6,7,7,8,8,9,9,10,10,11,11,12,12,13,13,14,14,15,15,16,16,17,17,18,18,20,20,22,22,23,23,24,24,25,25,26,26,29,29,30,30,31,31,32,32,33,33,34,34,36,36,37,37,38,38,41,41,42,42,43,43,44,44,45,45,46,46,47,47,48,48,50,50,51,51,52,52,54,54],"right_children":[2,4,6,8,10,12,14,16,18,20,22,24,26,28,30,32,34,36,38,-1,40,-1,42,44,46,48,50,-1,-1,52,54,56,58,60,62,-1,64,66,68,-1,-1,70,72,74,76,78,80,82,84,-1,86,88,90,-1,92,-1,-1,-1,-1,-1,-1,-1,-1,-1,-1,-1,-1,-1,-1,-1,-1,-1,-1,-1,-1,-1,-1,-1,-1,-1,-1,-1,-1,-1,-1,-1,-1,-1,-1,-1,-1,-1,-1],"split_conditions":[6.6336435E-1,4.0095046E-1,6.8546367E-1,6.152623E-1,5.9646755E-1,5.1785713E-1,5.788706E-1,5.636591E-1,4.495335E-1,4.4419217E-1,4.5759532E-1,5.406143E-1,7.217806E-1,5.2130324E-1,7.5596184E-1,6.520468E-1,4.3203637E-1,1.182604E-1,5.8313537E-1,-1.621236E-1,6.220039E-1,-1.12093605E-1,3.8480702E-1,4.4783714E-1,4.2963183E-1,4.1493198E-1,5.9783286E-1,1.2988558E-1,-1.712849E-1,6.263911E-1,6.6128306E-2,1.9759157E-1,4.8663324E-1,5.255102E-1,3.8512948E-1,-1.3873361E-1,4.4648257E-1,2.0710209E-1,4.9729475E-1,1.3756616E-1,-9.352074E-2,4.8880026E-1,6.0133004E-1,3.6849576E-1,6.7965025E-1,1.0543155E-1,5.3325415E-1,9.5056996E-2,5.3435117E-1,-1.4467312E-1,3.4321335E-1,3.9815915E-1,7.417799E-1,-1.7022528E-3,8.665929E-2,-2.5267614E-2,-1.676173E-1,1.4426722E-1,-1.3395452E-1,-9.198987E-2,1.15579985E-1,1.1811439E-1,-1.6880606E-1,1.4226459E-1,-1.4832908E-1,-1.7484443E-1,9.3795285E-2,1.4746015E-1,-9.42786E-2,-1.2175415E-1,1.3289866E-1,1.7272766E-1,8.094867E-2,-7.796585E-2,1.251E-1,-1.5942864E-1,1.382072E-1,-5.145654E-2,1.5664259E-1,-1.3414776E-1,1.08203016E-1,6.31604E-2,-1.5157907E-1,1.5800731E-1,-1.2069347E-1,1.4660908E-1,-6.86765E-2,-1.4609948E-1,1.548884E-1,-9.4361015E-2,1.0838355E-1,5.1065434E-2,1.6655456E-1],"split_indices":[648,644,638,645,648,5,617,639,9,65,199,545,645,0,645,638,2,324,8,0,13,0,497,273,646,82,529,0,0,117,500,659,0,643,154,0,345,6,4,0,0,2,277,301,535,214,30,130,185,0,620,30,552,0,548,0,0,0,0,0,0,0,0,0,0,0,0,0,0,0,0,0,0,0,0,0,0,0,0,0,0,0,0,0,0,0,0,0,0,0,0,0,0],"split_type":[0,0,0,0,0,0,0,0,0,0,0,0,0,0,0,0,0,0,0,0,0,0,0,0,0,0,0,0,0,0,0,0,0,0,0,0,0,0,0,0,0,0,0,0,0,0,0,0,0,0,0,0,0,0,0,0,0,0,0,0,0,0,0,0,0,0,0,0,0,0,0,0,0,0,0,0,0,0,0,0,0,0,0,0,0,0,0,0,0,0,0,0,0],"sum_hessian":[5.6204507E3,2.7619065E3,2.8585442E3,2.6603857E3,1.0152075E2,5.88203E2,2.270341E3,2.5194927E3,1.4089293E2,1.7813187E1,8.3707565E1,4.1438046E2,1.7382254E2,6.9789314E0,2.263362E3,2.1828137E3,3.3667902E2,7.612582E1,6.476711E1,1.3163109E1,4.6500793E0,1.9371859E0,8.177038E1,6.7283745E1,3.470967E2,1.163216E2,5.750095E1,1.1309057E0,5.848026E0,6.557607E2,1.6076014E3,2.176691E3,6.1228204E0,9.324151E1,2.434375E2,4.5896683E0,7.153615E1,5.7843376E1,6.923736E0,3.4378366E0,1.2122424E0,4.905064E0,7.686531E1,4.0437515E1,2.6846231E1,2.3842455E2,1.0867217E2,1.05194275E2,1.1127323E1,3.2235498E0,5.4277397E1,5.638663E2,9.189442E1,2.1293814E0,1.605472E3,2.9175215E0,2.1737734E3,2.2613647E0,3.8614554E0,4.7193726E1,4.6047783E1,3.6737347E0,2.3976376E2,6.837265E1,3.1634982E0,5.6696075E1,1.1473007E0,5.7106237E0,1.2131125E0,1.4899864E0,3.4150777E0,7.410918E1,2.7561352E0,8.431823E0,3.200569E1,2.3393612E1,3.4526188E0,6.455339E0,2.3196921E2,1.6932016E1,9.174016E1,6.5210037E0,9.867327E1,9.172917E0,1.954406E0,5.0410126E1,3.8672738E0,3.1996233E0,5.606666E2,3.3228954E1,5.8665462E1,2.9838092E0,1.6024883E3],"tree_param":{"num_deleted":"0","num_feature":"660","num_nodes":"93","size_leaf_vector":"1"}},{"base_weights":[-3.4758242E-4,-1.3475553E0,1.2647306E0,-1.5411373E0,-5.096044E-1,5.2555895E-1,1.4696388E0,-1.5555986E0,9.844304E-1,4.240563E-1,-8.726323E-1,9.0708107E-1,-3.6336786E-1,1.1913584E0,1.5362922E0,-1.5635852E0,-4.415002E-1,1.4513198E-1,-1.09212756E-1,1.0683808E0,-9.05361E-1,7.0313287E-1,-1.2510195E0,-6.6783774E-1,1.0284806E0,-1.4896778E0,7.069591E-1,1.4850923E0,7.001879E-1,1.5395476E0,4.894763E-2,-1.56868E0,-4.923554E-1,1.3857836E-1,-1.4940055E-1,-7.854448E-1,1.2803278E0,4.1574523E-1,-1.6073646E-1,-1.5668002E-1,9.90286E-1,1.386996E-1,-1.4187267E0,8.4449935E-1,-1.5613757E-1,-3.1751666E-2,1.1571573E0,1.1419485E-1,-1.5698372E-1,1.1530488E0,-1.7517856E-1,-1.135329E-1,1.5014765E0,-2.0168407E-1,9.8019993E-1,1.7925829E-1,1.5420967E0,1.11418165E-1,-1.244094E-1,-2.3402225E-2,-1.5704238E-1,1.3206486E-1,-1.4157261E-1,-1.5120928E-1,1.2236922E-1,-8.430385E-2,1.3899404E-1,-1.5599895E-1,1.4111029E-1,1.23561576E-1,-1.3544367E-1,1.176477E-1,-1.2992519E-1,-1.5186231E-1,7.646499E-2,-1.1394036E-1,1.3818918E-1,-1.4261168E-1,5.588561E-2,3.093871E-2,1.2766142E-1,-1.3953844E-1,1.312499E-1,9.808009E-2,-1.4388056E-1,1.5266216E-1,-4.9925706E-4,-1.0231411E-1,1.1122854E-1,-1.213277E-1,1.09835684E-1,3.908277E-3,1.5436316E-1],"categories":[],"categories_nodes":[],"categories_segments":[],"categories_sizes":[],"default_left":[0,0,0,0,0,0,0,0,0,0,0,0,0,0,0,0,0,0,0,0,0,0,0,0,0,0,0,0,0,0,0,0,0,0,0,0,0,0,0,0,0,0,0,0,0,0,0,0,0,0,0,0,0,0,0,0,0,0,0,0,0,0,0,0,0,0,0,0,0,0,0,0,0,0,0,0,0,0,0,0,0,0,0,0,0,0,0,0,0,0,0,0,0],"id":3,"left_children":[1,3,5,7,9,11,13,15,17,19,21,23,25,27,29,31,33,-1,-1,35,37,39,41,43,45,47,49,51,53,55,57,59,61,-1,-1,63,65,67,-1,-1,69,71,73,75,-1,77,79,-1,-1,81,83,-1,85,-1,87,89,91,-1,-1,-1,-1,-1,-1,-1,-1,-1,-1,-1,-1,-1,-1,-1,-1,-1,-1,-1,-1,-1,-1,-1,-1,-1,-1,-1,-1,-1,-1,-1,-1,-1,-1,-1,-1],"loss_changes":[9.262075E3,4.261255E2,4.237256E2,7.95957E1,1.6827974E2,2.0716122E2,3.886084E1,1.8223145E1,1.39769535E1,1.2034389E2,2.1375531E2,8.232742E1,2.2269806E2,6.076306E1,8.477539E0,1.0744141E1,3.384748E1,0E0,0E0,3.806836E1,4.336367E1,4.7030052E1,6.737863E1,4.343336E1,5.4176117E1,2.0758774E1,3.7566097E1,1.3175293E1,1.2538003E2,5.8344727E0,8.122504E0,4.519043E0,2.1030937E1,0E0,0E0,1.6884445E1,2.0962372E1,3.5178364E1,0E0,0E0,3.7653778E1,4.920767E1,5.728174E1,1.4606713E1,0E0,3.6968857E1,3.5446655E1,0E0,0E0,2.7509712E1,4.92609E1,0E0,1.0081543E1,0E0,4.0226578E1,7.0001616E0,3.9980469E0,0E0,0E0,0E0,0E0,0E0,0E0,0E0,0E0,0E0,0E0,0E0,0E0,0E0,0E0,0E0,0E0,0E0,0E0,0E0,0E0,0E0,0E0,0E0,0E0,0E0,0E0,0E0,0E0,0E0,0E0,0E0,0E0,0E0,0E0,0E0,0E0],"parents":[2147483647,0,0,1,1,2,2,3,3,4,4,5,5,6,6,7,7,8,8,9,9,10,10,11,11,12,12,13,13,14,14,15,15,16,16,19,19,20,20,21,21,22,22,23,23,24,24,25,25,26,26,27,27,28,28,29,29,30,30,31,31,32,32,35,35,36,36,37,37,40,40,41,41,42,42,43,43,45,45,46,46,49,49,50,50,52,52,54,54,55,55,56,56],"right_children":[2,4,6,8,10,12,14,16,18,20,22,24,26,28,30,32,34,-1,-1,36,38,40,42,44,46,48,50,52,54,56,58,60,62,-1,-1,64,66,68,-1,-1,70,72,74,76,-1,78,80,-1,-1,82,84,-1,86,-1,88,90,92,-1,-1,-1,-1,-1,-1,-1,-1,-1,-1,-1,-1,-1,-1,-1,-1,-1,-1,-1,-1,-1,-1,-1,-1,-1,-1,-1,-1,-1,-1,-1,-1,-1,-1,-1,-1],"split_conditions":[5.633803E-1,5.636591E-1,6.8546367E-1,3.881337E-1,4.333349E-1,5.02551E-1,7.263993E-1,6.7407185E-1,1.7878012E-1,4.868302E-1,3.8271973E-1,5.7357186E-1,6.8759936E-1,4.9744898E-1,3.6843267E-1,3.9026982E-1,4.723901E-1,1.4513198E-1,-1.09212756E-1,5.9646755E-1,5.0035286E-1,4.2578217E-1,4.2766297E-1,4.924812E-1,5.1808876E-1,3.2251236E-1,3.1591448E-1,7.328029E-2,6.756757E-1,5.7746476E-1,5.8366185E-1,1.9759157E-1,6.18678E-1,1.3857836E-1,-1.4940055E-1,6.204778E-1,4.8122868E-1,2.613986E-1,-1.6073646E-1,-1.5668002E-1,4.1237357E-1,4.7678462E-1,6.60465E-1,1.22516915E-1,-1.5613757E-1,6.1236423E-1,1.5520203E-1,1.1419485E-1,-1.5698372E-1,6.060786E-1,5.3521127E-1,-1.135329E-1,6.383148E-1,-2.0168407E-1,3.6015055E-1,5.20524E-1,6.615729E-2,1.11418165E-1,-1.244094E-1,-2.3402225E-2,-1.5704238E-1,1.3206486E-1,-1.4157261E-1,-1.5120928E-1,1.2236922E-1,-8.430385E-2,1.3899404E-1,-1.5599895E-1,1.4111029E-1,1.23561576E-1,-1.3544367E-1,1.176477E-1,-1.2992519E-1,-1.5186231E-1,7.646499E-2,-1.1394036E-1,1.3818918E-1,-1.4261168E-1,5.588561E-2,3.093871E-2,1.2766142E-1,-1.3953844E-1,1.312499E-1,9.808009E-2,-1.4388056E-1,1.5266216E-1,-4.9925706E-4,-1.0231411E-1,1.1122854E-1,-1.213277E-1,1.09835684E-1,3.908277E-3,1.5436316E-1],"split_indices":[649,639,638,380,2,5,638,648,260,563,624,639,645,5,651,644,1,0,0,648,554,4,73,220,457,356,646,170,623,649,2,659,4,0,0,17,17,568,0,0,554,475,595,586,0,594,654,0,0,551,253,0,51,0,4,19,456,0,0,0,0,0,0,0,0,0,0,0,0,0,0,0,0,0,0,0,0,0,0,0,0,0,0,0,0,0,0,0,0,0,0,0,0],"split_type":[0,0,0,0,0,0,0,0,0,0,0,0,0,0,0,0,0,0,0,0,0,0,0,0,0,0,0,0,0,0,0,0,0,0,0,0,0,0,0,0,0,0,0,0,0,0,0,0,0,0,0,0,0,0,0,0,0,0,0,0,0,0,0,0,0,0,0,0,0,0,0,0,0,0,0,0,0,0,0,0,0,0,0,0,0,0,0,0,0,0,0,0,0],"sum_hessian":[5.432461E3,2.6308013E3,2.8016597E3,2.1364119E3,4.9438937E2,6.0886127E2,2.1927983E3,2.1246304E3,1.1781471E1,1.3836485E2,3.560245E2,4.260029E2,1.8285837E2,4.2737314E2,1.7654252E3,2.1091077E3,1.552282E1,9.864622E0,1.9168494E0,9.332814E1,4.5036705E1,6.877169E1,2.872528E2,3.0165417E1,3.958375E2,8.890814E1,9.395023E1,2.661715E2,1.6120164E2,1.7615345E3,3.8906617E0,2.0986616E3,1.0445881E1,5.5575504E0,9.96527E0,9.2977915E0,8.403035E1,1.5768886E1,2.926782E1,7.222423E0,6.1549267E1,3.0950665E1,2.5630215E2,1.1223767E1,1.8941648E1,4.292333E1,3.5291415E2,2.2365472E0,8.667159E1,6.2192764E1,3.175747E1,1.2295384E0,2.6494196E2,1.4481475E1,1.4672017E2,3.4281988E0,1.7581063E3,2.209092E0,1.6815698E0,2.9149098E0,2.0957468E3,3.3797057E0,7.066175E0,7.0099006E0,2.287891E0,3.7964318E0,8.023392E1,5.092756E0,1.0676129E1,5.614754E1,5.4017267E0,1.8082363E1,1.2868301E1,2.4537973E2,1.0922435E1,2.1534793E0,9.070288E0,1.2350467E1,3.0572863E1,4.402988E1,3.0888428E2,3.2057211E0,5.8987045E1,1.6702065E1,1.5055406E1,2.6057916E2,4.362814E0,8.658009E0,1.3806216E2,1.2357814E0,2.1924174E0,1.8205136E0,1.7562858E3],"tree_param":{"num_deleted":"0","num_feature":"660","num_nodes":"93","size_leaf_vector":"1"}},{"base_weights":[-6.4416643E-4,-1.2576482E0,1.203201E0,-1.3448335E0,9.803501E-1,6.066979E-1,1.3973812E0,-2.4199615E-1,-1.4341558E0,-8.918796E-1,1.3853763E0,9.607549E-1,-2.5587752E-1,-1.3578789E-1,1.4026424E0,1.1481667E0,-1.0458375E0,-1.463618E0,-7.268251E-1,-1.4445814E-1,6.415645E-1,-9.94907E-2,1.4540557E0,1.19503774E-1,1.1306454E0,-1.0805143E0,8.5573626E-1,1.2260815E0,1.4812796E0,-1.27935E-1,1.2533361E0,-1.3247017E0,7.9308635E-1,-1.471846E0,-3.623139E-1,8.235913E-1,-1.5114808E0,-8.089535E-2,1.21657245E-1,3.6830524E-1,1.5188278E0,8.004963E-1,-1.045712E0,1.3221964E0,5.773047E-1,-1.2671971E0,7.751979E-1,-1.6755846E-1,1.0281488E0,6.675297E-1,1.4480816E0,1.7237781E-1,1.4843466E0,-1.2894006E-1,1.3593313E-1,-1.4570825E-1,9.175711E-2,1.3868266E-1,-1.3432883E-1,-1.4854455E-1,-1.149972E-1,-1.4097321E-1,1.5267374E-1,-1.5922347E-1,1.3312532E-1,7.795114E-2,-1.5639213E-1,-1.16176166E-1,1.18126445E-1,1.5407157E-1,6.647464E-2,-2.5669334E-2,1.3311501E-1,1.180558E-1,-1.5067816E-1,-4.392117E-3,1.3803338E-1,-3.0027676E-2,1.370755E-1,-1.3788348E-1,1.066673E-1,1.3871495E-1,-1.1469797E-1,1.275009E-1,-4.2140584E-2,-1.7517124E-1,8.219238E-2,-1.173571E-1,1.4578407E-1,-1.1400787E-1,1.0518376E-1,-6.596226E-3,1.4864002E-1],"categories":[],"categories_nodes":[],"categories_segments":[],"categories_sizes":[],"default_left":[0,0,0,0,0,0,0,0,0,0,0,0,0,0,0,0,0,0,0,0,0,0,0,0,0,0,0,0,0,0,0,0,0,0,0,0,0,0,0,0,0,0,0,0,0,0,0,0,0,0,0,0,0,0,0,0,0,0,0,0,0,0,0,0,0,0,0,0,0,0,0,0,0,0,0,0,0,0,0,0,0,0,0,0,0,0,0,0,0,0,0,0,0],"id":4,"left_children":[1,3,5,7,9,11,13,15,17,19,21,23,25,-1,27,29,31,33,35,-1,37,-1,39,41,43,45,47,49,51,-1,53,55,57,59,61,63,65,-1,-1,67,69,71,73,75,77,79,81,-1,83,85,87,89,91,-1,-1,-1,-1,-1,-1,-1,-1,-1,-1,-1,-1,-1,-1,-1,-1,-1,-1,-1,-1,-1,-1,-1,-1,-1,-1,-1,-1,-1,-1,-1,-1,-1,-1,-1,-1,-1,-1,-1,-1],"loss_changes":[7.883699E3,4.9860986E2,3.0739453E2,2.413418E2,7.41405E1,2.0037929E2,3.099585E1,2.0796718E2,4.6230957E1,1.5934941E1,1.44322815E1,6.629706E1,1.7646399E2,0E0,2.6001465E1,1.9032417E1,6.1440277E1,1.9199707E1,1.1406201E2,0E0,5.47472E0,0E0,4.8988495E0,6.369551E1,4.0213806E1,3.922142E1,3.756015E1,7.63064E1,5.289795E0,0E0,1.9524376E1,3.1801117E1,2.2325706E1,7.7524414E0,3.6730488E1,4.113142E1,8.658981E0,0E0,0E0,8.449503E0,3.390503E-1,2.8707626E1,3.221697E1,2.2808197E1,7.08726E1,2.7700363E1,1.4188586E1,0E0,2.8268997E1,6.833501E1,1.3098267E1,6.2324915E0,4.4851074E0,0E0,0E0,0E0,0E0,0E0,0E0,0E0,0E0,0E0,0E0,0E0,0E0,0E0,0E0,0E0,0E0,0E0,0E0,0E0,0E0,0E0,0E0,0E0,0E0,0E0,0E0,0E0,0E0,0E0,0E0,0E0,0E0,0E0,0E0,0E0,0E0,0E0,0E0,0E0,0E0],"parents":[2147483647,0,0,1,1,2,2,3,3,4,4,5,5,6,6,7,7,8,8,9,9,10,10,11,11,12,12,14,14,15,15,16,16,17,17,18,18,20,20,22,22,23,23,24,24,25,25,26,26,27,27,28,28,30,30,31,31,32,32,33,33,34,34,35,35,36,36,39,39,40,40,41,41,42,42,43,43,44,44,45,45,46,46,48,48,49,49,50,50,51,51,52,52],"right_children":[2,4,6,8,10,12,14,16,18,20,22,24,26,-1,28,30,32,34,36,-1,38,-1,40,42,44,46,48,50,52,-1,54,56,58,60,62,64,66,-1,-1,68,70,72,74,76,78,80,82,-1,84,86,88,90,92,-1,-1,-1,-1,-1,-1,-1,-1,-1,-1,-1,-1,-1,-1,-1,-1,-1,-1,-1,-1,-1,-1,-1,-1,-1,-1,-1,-1,-1,-1,-1,-1,-1,-1,-1,-1,-1,-1,-1,-1],"split_conditions":[6.6336435E-1,4.0095046E-1,6.95071E-1,4.2084214E-1,5.9646755E-1,5.1785713E-1,5.780371E-1,4.0458015E-1,6.03727E-1,1.8204351E-1,4.5759532E-1,5.406143E-1,7.1144676E-1,-1.3578789E-1,7.678855E-1,1.3465594E-1,6.8346244E-1,5.976558E-1,4.308306E-1,-1.4445814E-1,4.164578E-1,-9.94907E-2,3.8480702E-1,4.4783714E-1,4.364608E-1,4.1493198E-1,4.8289737E-1,4.611045E-1,8.532884E-2,-1.27935E-1,8.014059E-2,6.8395907E-1,4.783715E-1,4.604103E-1,5.722506E-1,4.2239186E-1,5.7472102E-2,-8.089535E-2,1.21657245E-1,4.8880026E-1,4.951279E-1,6.407686E-1,3.405582E-1,1.0421896E-1,3.8556063E-1,5.105729E-1,5.7710654E-1,-1.6755846E-1,3.319219E-1,6.8044513E-1,8.1717E-2,6.7861617E-1,8.665929E-2,-1.2894006E-1,1.3593313E-1,-1.4570825E-1,9.175711E-2,1.3868266E-1,-1.3432883E-1,-1.4854455E-1,-1.149972E-1,-1.4097321E-1,1.5267374E-1,-1.5922347E-1,1.3312532E-1,7.795114E-2,-1.5639213E-1,-1.16176166E-1,1.18126445E-1,1.5407157E-1,6.647464E-2,-2.5669334E-2,1.3311501E-1,1.180558E-1,-1.5067816E-1,-4.392117E-3,1.3803338E-1,-3.0027676E-2,1.370755E-1,-1.3788348E-1,1.066673E-1,1.3871495E-1,-1.1469797E-1,1.275009E-1,-4.2140584E-2,-1.7517124E-1,8.219238E-2,-1.173571E-1,1.4578407E-1,-1.1400787E-1,1.0518376E-1,-6.596226E-3,1.4864002E-1],"split_indices":[648,644,638,642,648,5,639,9,639,14,199,545,645,0,645,16,640,658,2,0,0,0,497,273,646,82,11,8,500,0,322,215,9,631,494,427,38,0,0,2,607,594,558,192,622,588,7,0,642,645,258,2,548,0,0,0,0,0,0,0,0,0,0,0,0,0,0,0,0,0,0,0,0,0,0,0,0,0,0,0,0,0,0,0,0,0,0,0,0,0,0,0,0],"split_type":[0,0,0,0,0,0,0,0,0,0,0,0,0,0,0,0,0,0,0,0,0,0,0,0,0,0,0,0,0,0,0,0,0,0,0,0,0,0,0,0,0,0,0,0,0,0,0,0,0,0,0,0,0,0,0,0,0,0,0,0,0,0,0,0,0,0,0,0,0,0,0,0,0,0,0,0,0,0,0,0,0,0,0,0,0,0,0,0,0,0,0,0,0],"sum_hessian":[5.20782E3,2.5476387E3,2.660181E3,2.4524963E3,9.514231E1,6.543141E2,2.0058668E3,1.8403073E2,2.2684656E3,1.670795E1,7.843436E1,4.6381888E2,1.904952E2,3.3329327E0,2.0025339E3,6.726842E1,1.16762314E2,2.1767297E3,9.173588E1,1.23239565E1,4.383994E0,1.8214197E0,7.661294E1,7.8216354E1,3.856025E2,1.0938057E2,8.111463E1,6.221771E2,1.3803568E3,2.3297E0,6.493872E1,1.016302E2,1.5132109E1,2.160254E3,1.6475857E1,3.080939E1,6.092649E1,1.129033E0,3.254961E0,4.689571E0,7.192337E1,4.9563015E1,2.865334E1,2.854116E2,1.0019094E2,9.967091E1,9.70966E0,4.616581E0,7.649805E1,1.7809563E2,4.440815E2,3.3606696E0,1.3769961E3,2.1518924E0,6.2786827E1,9.6295235E1,5.334967E0,1.2115754E1,3.0163543E0,2.0692122E3,9.104175E1,1.0762263E1,5.7135935E0,4.979046E0,2.5830343E1,1.0531299E0,5.987336E1,1.4782711E0,3.2113E0,6.9342354E1,2.5810173E0,1.6736385E1,3.282663E1,4.6483507E0,2.400499E1,1.1660346E1,2.7375122E2,4.786845E1,5.232249E1,9.551145E1,4.1594625E0,7.5760612E0,2.1335979E0,6.546903E1,1.1029014E1,1.0063432E1,1.680322E2,1.2046865E0,4.4287683E2,1.2294971E0,2.1311724E0,1.7803975E0,1.3752157E3],"tree_param":{"num_deleted":"0","num_feature":"660","num_nodes":"93","size_leaf_vector":"1"}},{"base_weights":[-7.7024475E-4,-1.1953701E0,1.1368256E0,-1.278517E0,9.2583424E-1,6.349298E-1,1.3554761E0,-1.3511856E0,-2.5695369E-2,-8.4349155E-1,1.3104076E0,1.0043705E0,-5.0652508E-2,1.1930745E0,1.4154403E0,-1.4027139E0,-8.6513793E-1,7.6503193E-1,-1.4203722E0,-1.3718604E-1,6.0899967E-1,-9.509305E-2,1.377077E0,2.783187E-1,1.12611E0,-9.139565E-1,8.793205E-1,1.3503884E0,4.3030077E-1,-1.3472338E-2,1.4179834E0,-1.410897E0,-2.5225976E-1,4.6652037E-1,-1.3449297E0,1.2826399E0,-1.6541341E-1,7.5043075E-2,-1.4852668E-1,-7.6701336E-2,1.1555456E-1,1.4182303E0,-7.884619E-3,9.29287E-1,-8.337111E-1,4.9067113E-1,1.2347947E0,-1.2559909E-1,-1.3636991E0,9.89428E-1,-1.2553865E0,1.3670279E0,-1.3342516E-1,-7.18032E-1,1.1150929E0,3.3110946E-1,1.4200757E0,-1.4128082E-1,4.4673786E-2,-1.321209E-1,1.3777463E-1,9.3754604E-2,-1.14440314E-1,1.4636338E-1,-1.4157195E-1,-9.1189E-2,1.356644E-1,-1.4356764E-1,7.110618E-2,1.4529243E-1,7.227615E-5,-1.4590614E-1,1.21439256E-1,6.618762E-2,-1.5769193E-1,-1.01806104E-1,9.720524E-2,1.2535755E-1,-1.3603267E-1,9.083231E-2,-1.3583635E-1,-1.5019839E-1,3.231631E-2,1.0675728E-1,-1.6116074E-1,7.654717E-2,-1.7464946E-1,-1.0833406E-1,1.3811257E-1,-1.23776935E-1,1.1807747E-1,1.2564439E-1,-1.4619762E-1,-1.6221855E-2,8.1124894E-2,1.421489E-1,9.778526E-3],"categories":[],"categories_nodes":[],"categories_segments":[],"categories_sizes":[],"default_left":[0,0,0,0,0,0,0,0,0,0,0,0,0,0,0,0,0,0,0,0,0,0,0,0,0,0,0,0,0,0,0,0,0,0,0,0,0,0,0,0,0,0,0,0,0,0,0,0,0,0,0,0,0,0,0,0,0,0,0,0,0,0,0,0,0,0,0,0,0,0,0,0,0,0,0,0,0,0,0,0,0,0,0,0,0,0,0,0,0,0,0,0,0,0,0,0,0],"id":5,"left_children":[1,3,5,7,9,11,13,15,17,19,21,23,25,27,29,31,33,35,37,-1,39,-1,41,43,45,47,49,51,53,-1,55,57,59,61,63,65,67,-1,-1,-1,-1,69,-1,71,73,75,77,79,81,83,85,87,-1,89,91,93,95,-1,-1,-1,-1,-1,-1,-1,-1,-1,-1,-1,-1,-1,-1,-1,-1,-1,-1,-1,-1,-1,-1,-1,-1,-1,-1,-1,-1,-1,-1,-1,-1,-1,-1,-1,-1,-1,-1,-1,-1],"loss_changes":[6.7438535E3,4.2810693E2,2.7808447E2,2.1206348E2,6.3626E1,1.95893E2,1.5544922E1,5.3934814E1,1.4306543E2,1.3892814E1,1.2747711E1,4.410257E1,2.1894751E2,5.7446167E1,5.2651367E0,1.8371338E1,1.3714769E2,4.0094334E1,7.726082E0,0E0,4.8201656E0,0E0,4.5519257E0,5.3971054E1,2.9092346E1,4.996218E1,3.2107323E1,1.9711548E1,6.697279E1,0E0,2.4521484E0,7.6430664E0,2.8422146E1,4.457978E1,3.3353302E1,9.897202E0,3.4963192E1,0E0,0E0,0E0,0E0,3.545761E0,0E0,3.3656494E1,3.1789894E1,4.781037E1,1.9570435E1,6.810384E1,2.1463806E1,2.7215736E1,8.166727E0,1.5260986E1,0E0,3.308458E1,2.1181702E1,1.0252988E0,2.2573242E0,0E0,0E0,0E0,0E0,0E0,0E0,0E0,0E0,0E0,0E0,0E0,0E0,0E0,0E0,0E0,0E0,0E0,0E0,0E0,0E0,0E0,0E0,0E0,0E0,0E0,0E0,0E0,0E0,0E0,0E0,0E0,0E0,0E0,0E0,0E0,0E0,0E0,0E0,0E0,0E0],"parents":[2147483647,0,0,1,1,2,2,3,3,4,4,5,5,6,6,7,7,8,8,9,9,10,10,11,11,12,12,13,13,14,14,15,15,16,16,17,17,18,18,20,20,22,22,23,23,24,24,25,25,26,26,27,27,28,28,30,30,31,31,32,32,33,33,34,34,35,35,36,36,41,41,43,43,44,44,45,45,46,46,47,47,48,48,49,49,50,50,51,51,53,53,54,54,55,55,56,56],"right_children":[2,4,6,8,10,12,14,16,18,20,22,24,26,28,30,32,34,36,38,-1,40,-1,42,44,46,48,50,52,54,-1,56,58,60,62,64,66,68,-1,-1,-1,-1,70,-1,72,74,76,78,80,82,84,86,88,-1,90,92,94,96,-1,-1,-1,-1,-1,-1,-1,-1,-1,-1,-1,-1,-1,-1,-1,-1,-1,-1,-1,-1,-1,-1,-1,-1,-1,-1,-1,-1,-1,-1,-1,-1,-1,-1,-1,-1,-1,-1,-1,-1],"split_conditions":[6.6336435E-1,4.0095046E-1,7.0927316E-1,6.152623E-1,5.9646755E-1,5.02551E-1,7.591415E-1,6.212849E-1,4.783715E-1,3.9021793E-1,4.5759532E-1,5.492958E-1,7.1144676E-1,6.263911E-1,7.755158E-2,6.1305755E-1,4.3203637E-1,5.6239367E-1,4.5636043E-1,-1.3718604E-1,4.4527987E-1,-9.509305E-2,4.2338166E-1,4.364608E-1,1.6537777E-1,3.5837293E-1,4.6906674E-1,7.1590114E-1,7.057923E-1,-1.3472338E-2,8.665929E-2,6.3077825E-1,5.717502E-1,4.9649408E-1,4.2021722E-1,3.1964222E-1,6.2328464E-1,7.5043075E-2,-1.4852668E-1,-7.6701336E-2,1.1555456E-1,6.357561E-1,-7.884619E-3,4.852984E-1,4.2997265E-1,1.2245638E-1,5.1314676E-1,5.3521127E-1,3.9025745E-1,6.7175573E-1,9.355624E-2,5.788706E-1,-1.3342516E-1,4.4366032E-1,3.4237438E-1,6.4786965E-1,3.378076E-1,-1.4128082E-1,4.4673786E-2,-1.321209E-1,1.3777463E-1,9.3754604E-2,-1.14440314E-1,1.4636338E-1,-1.4157195E-1,-9.1189E-2,1.356644E-1,-1.4356764E-1,7.110618E-2,1.4529243E-1,7.227615E-5,-1.4590614E-1,1.21439256E-1,6.618762E-2,-1.5769193E-1,-1.01806104E-1,9.720524E-2,1.2535755E-1,-1.3603267E-1,9.083231E-2,-1.3583635E-1,-1.5019839E-1,3.231631E-2,1.0675728E-1,-1.6116074E-1,7.654717E-2,-1.7464946E-1,-1.0833406E-1,1.3811257E-1,-1.23776935E-1,1.1807747E-1,1.2564439E-1,-1.4619762E-1,-1.6221855E-2,8.1124894E-2,1.421489E-1,9.778526E-3],"split_indices":[648,644,638,645,648,5,623,648,31,37,199,627,645,95,456,636,2,10,24,0,0,0,460,646,522,624,483,120,354,0,548,656,472,519,242,653,617,0,0,0,0,440,0,305,68,168,9,231,128,207,36,617,0,4,519,0,650,0,0,0,0,0,0,0,0,0,0,0,0,0,0,0,0,0,0,0,0,0,0,0,0,0,0,0,0,0,0,0,0,0,0,0,0,0,0,0,0],"split_type":[0,0,0,0,0,0,0,0,0,0,0,0,0,0,0,0,0,0,0,0,0,0,0,0,0,0,0,0,0,0,0,0,0,0,0,0,0,0,0,0,0,0,0,0,0,0,0,0,0,0,0,0,0,0,0,0,0,0,0,0,0,0,0,0,0,0,0,0,0,0,0,0,0,0,0,0,0,0,0,0,0,0,0,0,0,0,0,0,0,0,0,0,0,0,0,0,0],"sum_hessian":[4.960468E3,2.4195867E3,2.5408809E3,2.3287034E3,9.088329E1,7.7221765E2,1.7686633E3,2.2009604E3,1.27742874E2,1.6013924E1,7.486937E1,5.015056E2,2.7071204E2,4.825806E2,1.2860826E3,1.9882866E3,2.1267386E2,8.181081E1,4.5932068E1,1.1783122E1,4.230802E0,1.7642696E0,7.31051E1,7.2486084E1,4.2901953E2,1.4039711E2,1.3031493E2,3.9943167E2,8.3148926E1,2.0213256E0,1.2840614E3,1.9740193E3,1.4267418E1,5.633743E1,1.5633643E2,5.232424E1,2.9486563E1,1.0266176E0,4.490545E1,1.0880603E0,3.142742E0,7.112068E1,1.9844191E0,4.5825024E1,2.6661064E1,6.3466957E1,3.6555258E2,5.1464256E1,8.893285E1,1.2443321E2,5.881722E0,3.97459E2,1.9726602E0,3.1043432E1,5.2105495E1,2.7730124E0,1.2812883E3,1.9722296E3,1.7896353E0,8.731072E0,5.5363455E0,4.391494E1,1.2422493E1,3.3598433E0,1.529766E2,1.3375709E0,5.098667E1,1.1778353E1,1.770821E1,6.939718E1,1.7235036E0,4.4478087E0,4.1377216E1,8.886944E0,1.777412E1,1.5082117E1,4.8384842E1,3.6343933E2,2.1132362E0,2.813258E1,2.3331676E1,8.229602E1,6.6368284E0,1.21376175E2,3.0570343E0,1.0406978E0,4.8410244E0,1.8397673E0,3.9561923E2,2.464562E1,6.3978133E0,4.9881947E1,2.2235475E0,1.6943078E0,1.0787046E0,1.2798453E3,1.443052E0],"tree_param":{"num_deleted":"0","num_feature":"660","num_nodes":"97","size_leaf_vector":"1"}},{"base_weights":[-9.93759E-4,-1.1431049E0,1.0802878E0,-1.222869E0,8.785868E-1,5.9393173E-1,1.2964554E0,-2.0767744E-1,-1.3075669E0,-8.0213046E-1,1.2457523E0,9.415042E-1,-4.889479E-2,1.1323676E0,1.3576573E0,1.0309688E0,-9.367866E-1,-1.360456E0,-9.2902195E-1,-1.3110678E-1,5.8417827E-1,-9.110007E-2,1.3109365E0,7.346668E-1,1.3455225E0,-1.1405526E0,5.952837E-1,1.2871395E0,4.004065E-1,-1.5934853E-2,1.3602868E0,-4.8445278E-1,1.1906134E0,-1.2858078E0,3.492322E-1,-1.3629854E0,-2.389243E-1,5.7371914E-2,-1.3351136E0,1.1018596E-1,-7.2335646E-2,2.71043E-1,1.3760988E0,9.925806E-1,-5.803191E-1,-5.502922E-2,1.3739552E0,-1.3164504E0,5.5571485E-1,7.386951E-1,-1.3805237E0,1.3036563E0,-1.2501018E-1,-7.634331E-1,1.0030769E0,2.5069064E-3,1.361815E0,1.03595875E-1,-1.388701E-1,-8.954274E-2,1.256514E-1,-1.4321555E-1,1.03806615E-1,-1.2742265E-1,1.1473242E-1,-1.3650309E-1,-4.344206E-3,1.5413515E-1,-1.04819946E-1,-1.0256249E-1,8.101838E-2,-1.3076196E-2,-1.3898765E-1,-1.0957916E-1,1.0600381E-1,5.3044137E-2,1.399676E-1,1.23549424E-1,7.0867552E-3,4.850776E-2,-1.5164141E-1,1.397214E-1,-3.533361E-2,-1.3803537E-1,9.678722E-2,-9.909379E-2,1.152721E-1,2.9314611E-2,1.16892055E-1,7.258272E-2,-1.6492403E-1,-1.031391E-1,1.317551E-1,5.4373927E-2,-1.4669354E-1,1.1608435E-1,-1.473635E-1,1.363252E-1,9.218922E-3],"categories":[],"categories_nodes":[],"categories_segments":[],"categories_sizes":[],"default_left":[0,0,0,0,0,0,0,0,0,0,0,0,0,0,0,0,0,0,0,0,0,0,0,0,0,0,0,0,0,0,0,0,0,0,0,0,0,0,0,0,0,0,0,0,0,0,0,0,0,0,0,0,0,0,0,0,0,0,0,0,0,0,0,0,0,0,0,0,0,0,0,0,0,0,0,0,0,0,0,0,0,0,0,0,0,0,0,0,0,0,0,0,0,0,0,0,0,0,0],"id":6,"left_children":[1,3,5,7,9,11,13,15,17,19,21,23,25,27,29,31,33,35,37,-1,39,-1,41,43,45,47,49,51,53,-1,55,57,59,61,63,65,67,69,71,-1,-1,73,75,77,79,-1,81,83,85,87,89,91,-1,93,95,-1,97,-1,-1,-1,-1,-1,-1,-1,-1,-1,-1,-1,-1,-1,-1,-1,-1,-1,-1,-1,-1,-1,-1,-1,-1,-1,-1,-1,-1,-1,-1,-1,-1,-1,-1,-1,-1,-1,-1,-1,-1,-1,-1],"loss_changes":[5.80426E3,3.6966504E2,2.5305664E2,1.8884082E2,5.489682E1,1.6644025E2,1.5239258E1,1.5499399E2,3.9374756E1,1.2243343E1,1.1326622E1,3.940918E1,1.8513959E2,5.1579895E1,5.050049E0,1.5980637E1,4.8871887E1,4.720215E0,1.01014496E2,0E0,4.222176E0,0E0,4.395294E0,1.0976189E2,9.514557E0,2.9878326E1,4.7949013E1,1.751825E1,5.808161E1,0E0,2.4343262E0,1.0758657E1,9.083603E0,3.041742E1,3.2318798E1,4.7304688E0,9.129301E0,6.152643E1,1.15937195E1,0E0,0E0,6.9793606E0,5.729523E-1,6.025647E1,5.401219E1,0E0,6.936493E0,1.4299454E1,1.02662325E1,2.9381104E1,7.738138E0,1.359613E1,0E0,2.6956602E1,2.2915829E1,0E0,2.0788574E0,0E0,0E0,0E0,0E0,0E0,0E0,0E0,0E0,0E0,0E0,0E0,0E0,0E0,0E0,0E0,0E0,0E0,0E0,0E0,0E0,0E0,0E0,0E0,0E0,0E0,0E0,0E0,0E0,0E0,0E0,0E0,0E0,0E0,0E0,0E0,0E0,0E0,0E0,0E0,0E0,0E0,0E0],"parents":[2147483647,0,0,1,1,2,2,3,3,4,4,5,5,6,6,7,7,8,8,9,9,10,10,11,11,12,12,13,13,14,14,15,15,16,16,17,17,18,18,20,20,22,22,23,23,24,24,25,25,26,26,27,27,28,28,30,30,31,31,32,32,33,33,34,34,35,35,36,36,37,37,38,38,41,41,42,42,43,43,44,44,46,46,47,47,48,48,49,49,50,50,51,51,53,53,54,54,56,56],"right_children":[2,4,6,8,10,12,14,16,18,20,22,24,26,28,30,32,34,36,38,-1,40,-1,42,44,46,48,50,52,54,-1,56,58,60,62,64,66,68,70,72,-1,-1,74,76,78,80,-1,82,84,86,88,90,92,-1,94,96,-1,98,-1,-1,-1,-1,-1,-1,-1,-1,-1,-1,-1,-1,-1,-1,-1,-1,-1,-1,-1,-1,-1,-1,-1,-1,-1,-1,-1,-1,-1,-1,-1,-1,-1,-1,-1,-1,-1,-1,-1,-1,-1,-1],"split_conditions":[6.6336435E-1,4.0095046E-1,7.0927316E-1,4.2084214E-1,5.9646755E-1,5.02551E-1,7.591415E-1,4.0458015E-1,5.652368E-1,4.4419217E-1,4.5759532E-1,3.9026982E-1,6.8759936E-1,6.263911E-1,6.593472E-2,5.385665E-1,5.7422805E-1,5.848434E-1,4.308306E-1,-1.3110678E-1,6.220039E-1,-9.110007E-2,3.8480702E-1,4.3942994E-1,2.3326643E-1,5.921397E-1,4.74862E-1,7.1590114E-1,7.071836E-1,-1.5934853E-2,8.760425E-2,5.1194537E-1,1.4619818E-1,3.3442837E-1,5.8028615E-1,3.9026982E-1,4.419382E-2,4.8979592E-1,4.2105263E-1,1.1018596E-1,-7.2335646E-2,4.8880026E-1,4.8237723E-1,5.568798E-1,4.661921E-1,-5.502922E-2,5.7075286E-1,7.281001E-1,2.0287557E-1,7.321145E-1,5.3418124E-1,5.788706E-1,-1.2501018E-1,6.295707E-1,3.4237438E-1,2.5069064E-3,3.378076E-1,1.03595875E-1,-1.388701E-1,-8.954274E-2,1.256514E-1,-1.4321555E-1,1.03806615E-1,-1.2742265E-1,1.1473242E-1,-1.3650309E-1,-4.344206E-3,1.5413515E-1,-1.04819946E-1,-1.0256249E-1,8.101838E-2,-1.3076196E-2,-1.3898765E-1,-1.0957916E-1,1.0600381E-1,5.3044137E-2,1.399676E-1,1.23549424E-1,7.0867552E-3,4.850776E-2,-1.5164141E-1,1.397214E-1,-3.533361E-2,-1.3803537E-1,9.678722E-2,-9.909379E-2,1.152721E-1,2.9314611E-2,1.16892055E-1,7.258272E-2,-1.6492403E-1,-1.031391E-1,1.317551E-1,5.4373927E-2,-1.4669354E-1,1.1608435E-1,-1.473635E-1,1.363252E-1,9.218922E-3],"split_indices":[648,644,638,642,648,5,623,9,639,65,199,644,645,95,478,633,8,612,2,0,13,0,497,646,285,63,505,120,376,0,570,193,632,644,491,644,14,643,66,0,0,2,618,24,2,0,438,39,348,601,7,617,0,51,519,0,650,0,0,0,0,0,0,0,0,0,0,0,0,0,0,0,0,0,0,0,0,0,0,0,0,0,0,0,0,0,0,0,0,0,0,0,0,0,0,0,0,0,0],"split_type":[0,0,0,0,0,0,0,0,0,0,0,0,0,0,0,0,0,0,0,0,0,0,0,0,0,0,0,0,0,0,0,0,0,0,0,0,0,0,0,0,0,0,0,0,0,0,0,0,0,0,0,0,0,0,0,0,0,0,0,0,0,0,0,0,0,0,0,0,0,0,0,0,0,0,0,0,0,0,0,0,0,0,0,0,0,0,0,0,0,0,0,0,0,0,0,0,0,0,0],"sum_hessian":[4.6980195E3,2.2847156E3,2.4133037E3,2.1983757E3,8.6339874E1,7.4373016E2,1.6695736E3,1.695534E2,2.0288223E3,1.5267505E1,7.1072365E1,4.8242252E2,2.6130762E2,4.5885233E2,1.2107213E3,6.2670937E1,1.0688247E2,1.7778344E3,2.5098792E2,1.1207365E1,4.0601387E0,1.7043554E0,6.936801E1,3.2093707E2,1.6148546E2,9.668675E1,1.6462088E2,3.7813736E2,8.0714966E1,1.9918793E0,1.2087295E3,5.779037E0,5.6891903E1,8.406709E1,2.2815374E1,1.7736193E3,4.2151628E0,7.3446236E1,1.7754167E2,3.0212574E0,1.0388814E0,4.3946967E0,6.497331E1,2.685169E2,5.2420177E1,2.1149094E0,1.5937054E2,8.7805504E1,8.881247E0,1.5406444E2,1.0556437E1,3.7617474E2,1.9626051E0,2.7446072E1,5.3268898E1,1.4016861E0,1.2073278E3,2.1009026E0,3.6781344E0,1.3567688E0,5.5535133E1,7.944755E1,4.6195445E0,7.322842E0,1.5492532E1,1.7708397E3,2.7795117E0,1.0346003E0,3.1805625E0,2.9969564E1,4.3476673E1,7.8691735E0,1.696725E2,1.4660703E0,2.9286265E0,2.399717E0,6.2573597E1,2.1224117E2,5.6275723E1,2.4742186E1,2.767799E1,1.5744164E2,1.9289191E0,8.580097E1,2.004533E0,2.2896492E0,6.5915976E0,7.651036E1,7.755408E1,1.0018996E0,9.554537E0,1.7919979E0,3.7438275E2,9.68239E0,1.7763681E1,5.057835E1,2.690546E0,1.2058893E3,1.4385285E0],"tree_param":{"num_deleted":"0","num_feature":"660","num_nodes":"99","size_leaf_vector":"1"}},{"base_weights":[-1.1408721E-3,-1.0892689E0,1.0408169E0,-1.167073E0,8.324159E-1,5.758487E-1,1.2461895E0,-3.87058E-1,-1.2851667E0,-1.2328736E-1,1.094255E0,8.76552E-1,-1.1661618E-1,1.0793391E0,1.3090969E0,7.231773E-1,-9.919332E-1,-9.0664876E-1,-1.311503E0,1.1993653E0,-1.22533E-1,2.601488E-1,1.0226117E0,-7.5670624E-1,9.0577984E-1,-1.4385915E-1,1.1697273E0,-1.6910914E-2,1.3118234E0,-3.4274653E-1,1.1245788E0,-1.1472936E0,6.2906355E-1,8.53576E-1,-1.2944311E0,-1.3132809E0,7.848128E-2,1.2714514E0,-9.360473E-2,-3.2416868E-1,1.2631866E0,7.1064075E-3,1.0901874E0,3.0171806E-1,-1.1137984E0,-1.537038E-1,9.9171543E-1,5.32932E-1,-1.9974115E-1,-1.343274E-1,1.187848E0,2.4314396E-1,1.3141072E0,1.0716202E-1,-1.0949226E-1,-1.0625149E-1,1.1954271E-1,-1.3020878E-1,-5.329318E-3,1.1436423E-1,-1.1588333E-1,-1.2975074E-1,1.3084523E-1,-1.3548808E-1,4.853566E-2,-1.315222E-1,-1.7411822E-2,1.3186957E-1,-8.590125E-2,-9.815137E-2,6.903757E-2,-9.091276E-3,1.330372E-1,-1.1681148E-1,8.533054E-2,3.15331E-2,1.1456505E-1,-1.0724391E-1,9.915494E-2,-1.0102578E-2,-1.4754148E-1,-1.6708456E-1,1.0584076E-1,-1.5755855E-1,9.7111985E-2,-6.285416E-2,1.2091432E-1,-2.1740362E-2,7.2819196E-2,1.3155892E-1,8.691224E-3],"categories":[],"categories_nodes":[],"categories_segments":[],"categories_sizes":[],"default_left":[0,0,0,0,0,0,0,0,0,0,0,0,0,0,0,0,0,0,0,0,0,0,0,0,0,0,0,0,0,0,0,0,0,0,0,0,0,0,0,0,0,0,0,0,0,0,0,0,0,0,0,0,0,0,0,0,0,0,0,0,0,0,0,0,0,0,0,0,0,0,0,0,0,0,0,0,0,0,0,0,0,0,0,0,0,0,0,0,0,0,0],"id":7,"left_children":[1,3,5,7,9,11,13,15,17,-1,19,21,23,25,27,29,31,33,35,37,-1,39,41,43,45,47,49,-1,51,53,55,57,59,61,63,65,-1,67,-1,69,71,73,75,77,79,-1,81,83,-1,-1,85,87,89,-1,-1,-1,-1,-1,-1,-1,-1,-1,-1,-1,-1,-1,-1,-1,-1,-1,-1,-1,-1,-1,-1,-1,-1,-1,-1,-1,-1,-1,-1,-1,-1,-1,-1,-1,-1,-1,-1],"loss_changes":[5.024759E3,3.2510425E2,2.1547144E2,1.9146582E2,4.7282814E1,1.4491714E2,1.5060547E1,1.8569902E2,1.684961E1,0E0,1.9978226E1,4.340088E1,1.3906416E2,4.830966E1,4.7963867E0,4.2197792E1,4.5732727E1,8.3663376E1,7.3273926E0,1.2446976E1,0E0,5.565025E1,2.6876556E1,4.969049E1,1.8710434E1,3.9767273E1,2.0064087E1,0E0,2.4459229E0,3.0428947E1,1.2306442E1,2.7610397E1,1.6300888E1,2.3652647E1,1.1363846E1,3.5043945E0,0E0,8.295601E0,0E0,4.0927574E1,3.2959328E0,2.6305656E1,1.5424438E1,3.30363E1,3.5688477E1,0E0,1.5919746E1,2.3140146E1,0E0,0E0,1.6355896E1,9.7218084E-1,1.9415283E0,0E0,0E0,0E0,0E0,0E0,0E0,0E0,0E0,0E0,0E0,0E0,0E0,0E0,0E0,0E0,0E0,0E0,0E0,0E0,0E0,0E0,0E0,0E0,0E0,0E0,0E0,0E0,0E0,0E0,0E0,0E0,0E0,0E0,0E0,0E0,0E0,0E0,0E0],"parents":[2147483647,0,0,1,1,2,2,3,3,4,4,5,5,6,6,7,7,8,8,10,10,11,11,12,12,13,13,14,14,15,15,16,16,17,17,18,18,19,19,21,21,22,22,23,23,24,24,25,25,26,26,28,28,29,29,30,30,31,31,32,32,33,33,34,34,35,35,37,37,39,39,40,40,41,41,42,42,43,43,44,44,46,46,47,47,50,50,51,51,52,52],"right_children":[2,4,6,8,10,12,14,16,18,-1,20,22,24,26,28,30,32,34,36,38,-1,40,42,44,46,48,50,-1,52,54,56,58,60,62,64,66,-1,68,-1,70,72,74,76,78,80,-1,82,84,-1,-1,86,88,90,-1,-1,-1,-1,-1,-1,-1,-1,-1,-1,-1,-1,-1,-1,-1,-1,-1,-1,-1,-1,-1,-1,-1,-1,-1,-1,-1,-1,-1,-1,-1,-1,-1,-1,-1,-1,-1,-1],"split_conditions":[6.661163E-1,4.0095046E-1,7.0927316E-1,4.4318983E-1,4.5071542E-1,5.1870745E-1,7.591415E-1,4.0458015E-1,4.358186E-1,-1.2328736E-1,4.088745E-1,5.4266214E-1,7.3131955E-1,3.9073634E-1,7.755158E-2,4.5292622E-1,6.8346244E-1,4.1986272E-1,6.964844E-1,5.288007E-1,-1.22533E-1,3.649761E-1,4.8122868E-1,8.5868105E-2,4.791809E-1,1.6843434E-1,8.1717E-2,-1.6910914E-2,8.665929E-2,4.165342E-1,1.2853022E-1,3.340722E-1,4.783715E-1,3.7531057E-1,3.7458315E-1,3.9026982E-1,7.848128E-2,4.45338E-1,-9.360473E-2,1.7596422E-1,3.4992546E-1,6.299081E-1,1.1629852E-1,6.650655E-1,5.070422E-1,-1.537038E-1,7.117162E-2,1.5413396E-1,-1.9974115E-1,-1.343274E-1,3.5356387E-1,6.4786965E-1,3.378076E-1,1.0716202E-1,-1.0949226E-1,-1.0625149E-1,1.1954271E-1,-1.3020878E-1,-5.329318E-3,1.1436423E-1,-1.1588333E-1,-1.2975074E-1,1.3084523E-1,-1.3548808E-1,4.853566E-2,-1.315222E-1,-1.7411822E-2,1.3186957E-1,-8.590125E-2,-9.815137E-2,6.903757E-2,-9.091276E-3,1.330372E-1,-1.1681148E-1,8.533054E-2,3.15331E-2,1.1456505E-1,-1.0724391E-1,9.915494E-2,-1.0102578E-2,-1.4754148E-1,-1.6708456E-1,1.0584076E-1,-1.5755855E-1,9.7111985E-2,-6.285416E-2,1.2091432E-1,-2.1740362E-2,7.2819196E-2,1.3155892E-1,8.691224E-3],"split_indices":[648,644,638,642,557,5,623,9,651,0,482,545,645,96,456,537,640,46,639,607,0,622,347,212,325,14,258,0,548,95,40,258,9,609,652,644,0,394,0,212,279,528,170,318,275,0,36,524,0,0,48,0,650,0,0,0,0,0,0,0,0,0,0,0,0,0,0,0,0,0,0,0,0,0,0,0,0,0,0,0,0,0,0,0,0,0,0,0,0,0,0],"split_type":[0,0,0,0,0,0,0,0,0,0,0,0,0,0,0,0,0,0,0,0,0,0,0,0,0,0,0,0,0,0,0,0,0,0,0,0,0,0,0,0,0,0,0,0,0,0,0,0,0,0,0,0,0,0,0,0,0,0,0,0,0,0,0,0,0,0,0,0,0,0,0,0,0,0,0,0,0,0,0,0,0,0,0,0,0,0,0,0,0,0,0],"sum_hessian":[4.4298506E3,2.166894E3,2.2629565E3,2.0829531E3,8.3940796E1,6.9446826E2,1.5684883E3,2.7445322E2,1.8084999E3,9.027411E0,7.491338E1,4.8401752E2,2.1045073E2,4.34422E2,1.1340663E3,9.6723595E1,1.7772961E2,1.1994988E2,1.68855E3,7.21279E1,2.785483E0,9.325263E1,3.907649E2,1.2958286E2,8.086788E1,2.9851961E1,4.0457004E2,1.9755114E0,1.1320908E3,2.6499676E1,7.0223915E1,1.6245204E2,1.5277581E1,2.1437853E1,9.851203E1,1.6874924E3,1.0576457E0,7.016393E1,1.9639673E0,5.9353306E1,3.3899326E1,2.444961E1,3.6631528E2,3.272897E1,9.685388E1,2.1743238E0,7.869356E1,2.238937E1,7.4625926E0,2.3728285E0,4.021972E2,2.643305E0,1.1294475E3,9.052661E0,1.7447016E1,1.7642528E0,6.845966E1,1.4214868E2,2.0303352E1,1.2143014E1,3.1345668E0,3.4186792E0,1.8019173E1,9.550692E1,3.0051057E0,1.6844678E3,3.0245967E0,6.901452E1,1.1494119E0,3.603683E1,2.3316477E1,1.5857536E0,3.2313572E1,1.00757475E1,1.4373862E1,2.4915403E1,3.4139987E2,1.0753384E1,2.1975586E1,2.5819906E1,7.103397E1,1.3351938E0,7.735837E1,3.4057152E0,1.8983654E1,4.3302603E0,3.9786694E2,1.6389396E0,1.0043654E0,1.1280133E3,1.4342264E0],"tree_param":{"num_deleted":"0","num_feature":"660","num_nodes":"91","size_leaf_vector":"1"}},{"base_weights":[-1.4561233E-3,-1.0729986E0,9.778722E-1,-1.2488192E0,-3.7330404E-1,3.7502196E-1,1.1598244E0,-1.2608083E0,7.646983E-1,3.650589E-1,-6.765129E-1,-2.5075672E-2,9.288171E-1,9.1893345E-1,1.2460445E0,-1.267126E0,1.5281336E-1,1.1488936E-1,-8.2046896E-2,7.332534E-1,-1.0369748E0,6.616913E-1,-9.784967E-1,-8.0736476E-1,5.8534557E-1,3.2378912E-1,1.2262714E0,1.0756682E0,-3.9644778E-1,1.2491347E0,-1.0156155E-1,-1.2741302E0,-5.2259123E-1,1.428954E-1,-1.0232172E-1,-1.362683E-1,8.7114185E-1,1.13819025E-1,-1.2978758E-1,9.363577E-1,-1.0275141E0,-3.7362644E-1,-1.3235828E-1,-1.1404275E0,1.1302457E0,-1.5320735E-1,6.907487E-1,-6.032704E-1,1.0923779E0,-4.1193354E-1,1.2567822E0,1.2427387E0,5.7221526E-1,-1.0470586E0,1.0164613E0,2.6485145E-1,1.2529073E0,-1.2789772E-1,-3.14248E-2,1.1602148E-1,-1.1953429E-1,-8.9027494E-2,9.841513E-2,1.19293384E-1,-1.3607685E-1,-1.3426436E-1,4.9026553E-2,-9.394949E-2,8.099443E-2,1.134956E-1,-1.2338717E-1,1.2626128E-1,-1.3116813E-2,-1.6105695E-1,7.795735E-2,-1.3276188E-1,3.8837492E-2,1.1994926E-1,-1.0312189E-1,4.5816597E-2,-1.0084096E-1,1.2819017E-1,-4.0383182E-2,-1.9953392E-2,1.2521434E-1,9.2462674E-2,-9.595201E-2,-1.6126314E-1,7.7685113E-3,1.2995777E-1,-1.0749201E-1,-1.2499161E-1,1.0346291E-1,5.976798E-2,1.2586166E-1],"categories":[],"categories_nodes":[],"categories_segments":[],"categories_sizes":[],"default_left":[0,0,0,0,0,0,0,0,0,0,0,0,0,0,0,0,0,0,0,0,0,0,0,0,0,0,0,0,0,0,0,0,0,0,0,0,0,0,0,0,0,0,0,0,0,0,0,0,0,0,0,0,0,0,0,0,0,0,0,0,0,0,0,0,0,0,0,0,0,0,0,0,0,0,0,0,0,0,0,0,0,0,0,0,0,0,0,0,0,0,0,0,0,0,0],"id":8,"left_children":[1,3,5,7,9,11,13,15,17,19,21,23,25,27,29,31,33,-1,-1,35,37,39,41,43,45,47,49,51,53,55,-1,57,59,-1,-1,-1,61,-1,-1,63,65,67,-1,69,71,-1,73,75,77,79,81,83,85,87,89,91,93,-1,-1,-1,-1,-1,-1,-1,-1,-1,-1,-1,-1,-1,-1,-1,-1,-1,-1,-1,-1,-1,-1,-1,-1,-1,-1,-1,-1,-1,-1,-1,-1,-1,-1,-1,-1,-1,-1],"loss_changes":[4.3734023E3,2.4435522E2,2.3841211E2,3.9347656E1,9.003877E1,1.12208206E2,3.358496E1,1.4312744E1,7.0534124E0,6.1367355E1,1.15686844E2,1.4130482E2,3.782689E1,9.207922E1,9.855103E0,7.5427246E0,1.33579445E1,0E0,0E0,2.8229744E1,1.557036E1,2.5556393E1,4.8069275E1,8.497952E1,3.8159576E1,5.150675E1,7.616791E0,3.2723114E1,4.524583E1,4.22583E0,0E0,6.8500977E0,1.9914444E1,0E0,0E0,0E0,1.8473885E1,0E0,0E0,2.8804703E1,4.4322786E0,5.8299347E1,0E0,2.5035172E1,3.4255638E0,0E0,3.3766365E1,2.4212795E1,1.0192749E1,2.2006574E0,6.344284E0,4.28656E0,5.5350533E1,2.1372658E1,1.0669937E1,8.236268E0,3.8204346E0,0E0,0E0,0E0,0E0,0E0,0E0,0E0,0E0,0E0,0E0,0E0,0E0,0E0,0E0,0E0,0E0,0E0,0E0,0E0,0E0,0E0,0E0,0E0,0E0,0E0,0E0,0E0,0E0,0E0,0E0,0E0,0E0,0E0,0E0,0E0,0E0,0E0,0E0],"parents":[2147483647,0,0,1,1,2,2,3,3,4,4,5,5,6,6,7,7,8,8,9,9,10,10,11,11,12,12,13,13,14,14,15,15,16,16,19,19,20,20,21,21,22,22,23,23,24,24,25,25,26,26,27,27,28,28,29,29,31,31,32,32,36,36,39,39,40,40,41,41,43,43,44,44,46,46,47,47,48,48,49,49,50,50,51,51,52,52,53,53,54,54,55,55,56,56],"right_children":[2,4,6,8,10,12,14,16,18,20,22,24,26,28,30,32,34,-1,-1,36,38,40,42,44,46,48,50,52,54,56,-1,58,60,-1,-1,-1,62,-1,-1,64,66,68,-1,70,72,-1,74,76,78,80,82,84,86,88,90,92,94,-1,-1,-1,-1,-1,-1,-1,-1,-1,-1,-1,-1,-1,-1,-1,-1,-1,-1,-1,-1,-1,-1,-1,-1,-1,-1,-1,-1,-1,-1,-1,-1,-1,-1,-1,-1,-1,-1],"split_conditions":[5.633803E-1,5.636591E-1,6.8546367E-1,3.881337E-1,4.333349E-1,5.590855E-1,7.4483305E-1,5.804555E-1,1.7878012E-1,4.8657718E-1,3.7292162E-1,6.732909E-1,5.9856915E-1,6.263911E-1,3.411633E-1,5.0540614E-1,1.0699546E-1,1.1488936E-1,-8.2046896E-2,4.9351537E-1,4.3542695E-1,6.009539E-1,4.4642857E-1,3.704243E-1,4.4657934E-1,4.110701E-1,7.452062E-2,5.02551E-1,3.5365355E-1,8.5066274E-2,-1.0156155E-1,3.9026982E-1,4.8337293E-1,1.428954E-1,-1.0232172E-1,-1.362683E-1,4.8122868E-1,1.13819025E-1,-1.2978758E-1,3.8243628E-1,5.5885494E-1,6.0969794E-1,-1.3235828E-1,3.7894225E-1,4.385912E-1,-1.5320735E-1,6.0150373E-1,3.0434906E-1,6.265664E-1,5.0793654E-1,6.4266366E-1,7.328029E-2,3.8034442E-1,7.1512115E-1,3.2447374E-1,1.7041029E-1,5.8348097E-2,-1.2789772E-1,-3.14248E-2,1.1602148E-1,-1.1953429E-1,-8.9027494E-2,9.841513E-2,1.19293384E-1,-1.3607685E-1,-1.3426436E-1,4.9026553E-2,-9.394949E-2,8.099443E-2,1.134956E-1,-1.2338717E-1,1.2626128E-1,-1.3116813E-2,-1.6105695E-1,7.795735E-2,-1.3276188E-1,3.8837492E-2,1.1994926E-1,-1.0312189E-1,4.5816597E-2,-1.0084096E-1,1.2819017E-1,-4.0383182E-2,-1.9953392E-2,1.2521434E-1,9.2462674E-2,-9.595201E-2,-1.6126314E-1,7.7685113E-3,1.2995777E-1,-1.0749201E-1,-1.2499161E-1,1.0346291E-1,5.976798E-2,1.2586166E-1],"split_indices":[649,639,638,380,2,8,645,590,260,606,646,645,645,95,650,502,42,0,0,413,642,227,5,644,657,644,366,5,578,544,0,644,624,0,0,0,17,0,0,629,63,623,0,437,233,0,572,500,462,0,375,170,558,528,16,6,388,0,0,0,0,0,0,0,0,0,0,0,0,0,0,0,0,0,0,0,0,0,0,0,0,0,0,0,0,0,0,0,0,0,0,0,0,0,0],"split_type":[0,0,0,0,0,0,0,0,0,0,0,0,0,0,0,0,0,0,0,0,0,0,0,0,0,0,0,0,0,0,0,0,0,0,0,0,0,0,0,0,0,0,0,0,0,0,0,0,0,0,0,0,0,0,0,0,0,0,0,0,0,0,0,0,0,0,0,0,0,0,0,0,0,0,0,0,0,0,0,0,0,0,0,0,0,0,0,0,0,0,0,0,0,0,0],"sum_hessian":[4.165558E3,1.9890846E3,2.1764736E3,1.5890103E3,4.0007437E2,5.053134E2,1.6711603E3,1.5799764E3,9.0338955E0,1.16405075E2,2.8366928E2,2.939207E2,2.113927E2,4.4355826E2,1.227602E3,1.5730499E3,6.926419E0,7.493038E0,1.5408571E0,9.2571465E1,2.383361E1,5.2008556E1,2.3166074E2,1.2868324E2,1.6523744E2,7.03625E1,1.410302E2,3.9649588E2,4.7062386E1,1.2263741E3,1.2278787E0,1.5576844E3,1.5365533E1,3.2186809E0,3.707738E0,5.165909E0,8.7405556E1,2.1924367E0,2.1641174E1,4.5118008E1,6.8905487E0,8.491086E1,1.4674986E2,1.10159035E2,1.85242E1,7.1935E0,1.5804395E2,3.1990803E1,3.83717E1,2.3500195E0,1.3868018E2,2.966007E2,9.989519E1,3.24013E1,1.4661087E1,4.9544296E0,1.2214197E3,1.5495276E3,8.156795E0,4.1814833E0,1.118405E1,4.8550277E0,8.255053E1,4.101729E1,4.1007175E0,5.801417E0,1.0891316E0,5.7585358E1,2.7325502E1,3.905819E0,1.0625322E2,1.6764101E1,1.7600994E0,5.236703E0,1.5280724E2,1.8291183E1,1.3699617E1,3.6943428E1,1.4282736E0,1.0500928E0,1.2999266E0,1.3683832E2,1.841857E0,1.7905341E0,2.9481015E2,8.1532974E1,1.8362211E1,2.1271322E1,1.1129975E1,1.3246476E1,1.4146103E0,1.4592273E0,3.495202E0,1.1463847E1,1.2099559E3],"tree_param":{"num_deleted":"0","num_feature":"660","num_nodes":"95","size_leaf_vector":"1"}},{"base_weights":[-1.6950018E-3,-1.058721E0,9.2328995E-1,-1.1188396E0,6.9230056E-1,1.1162628E0,2.9471755E-1,-4.0894607E-1,-1.2221514E0,-1.2181034E-1,1.0936317E0,8.3075833E-1,1.2016695E0,6.892052E-1,-4.4369572E-1,-1.109322E0,4.5169896E-1,-1.2277244E0,4.9799275E-1,1.1940295E0,-9.065294E-2,-9.871871E-1,9.8323333E-1,-4.4273715E-2,1.2046055E0,5.2473083E-2,9.4330615E-1,-1.1490015E0,5.1196194E-1,-1.2280773E0,1.1436649E-1,-1.0897776E0,7.622982E-1,-1.2439613E0,-7.729452E-1,-7.8459315E-2,1.1708286E-1,-7.404999E-2,1.2519255E0,9.0759945E-1,-1.3603433E0,1.0540171E0,-3.9666924E-1,1.3333803E-1,1.208902E0,-8.8104445E-1,8.3868504E-1,-1.3933729E-1,9.850306E-1,-1.3378689E0,2.2206716E-1,8.4404576E-1,-1.1007764E0,-1.2668042E-1,8.316659E-2,-1.12021975E-1,1.0581515E-1,-1.2448378E-1,7.2899185E-2,-1.19041204E-1,9.104466E-2,-1.2500025E-1,-3.5018127E-2,-1.1724985E-1,1.1268357E-1,1.2890641E-1,-6.6592205E-5,1.0079384E-1,2.5305796E-2,3.175559E-2,-1.586323E-1,-1.3389991E-1,1.0764044E-1,-1.4351158E-1,8.0288716E-2,-1.2971419E-1,9.970529E-2,4.301417E-2,1.2139087E-1,-1.3138998E-1,2.3367748E-2,9.882181E-2,-1.0911316E-1,1.0145521E-1,-1.7801574E-1,1.8218314E-2,-1.4193441E-1,-1.2370672E-1,8.894261E-2,1.10012375E-1,-1.0151178E-1,7.117129E-2,-1.4659058E-1],"categories":[],"categories_nodes":[],"categories_segments":[],"categories_sizes":[],"default_left":[0,0,0,0,0,0,0,0,0,0,0,0,0,0,0,0,0,0,0,0,0,0,0,0,0,0,0,0,0,0,0,0,0,0,0,0,0,0,0,0,0,0,0,0,0,0,0,0,0,0,0,0,0,0,0,0,0,0,0,0,0,0,0,0,0,0,0,0,0,0,0,0,0,0,0,0,0,0,0,0,0,0,0,0,0,0,0,0,0,0,0,0,0],"id":9,"left_children":[1,3,5,7,9,11,13,15,17,-1,19,21,23,25,27,29,31,33,35,37,-1,39,41,-1,43,45,47,49,51,53,55,57,59,61,63,-1,-1,-1,65,67,69,71,73,75,77,79,81,-1,83,85,87,89,91,-1,-1,-1,-1,-1,-1,-1,-1,-1,-1,-1,-1,-1,-1,-1,-1,-1,-1,-1,-1,-1,-1,-1,-1,-1,-1,-1,-1,-1,-1,-1,-1,-1,-1,-1,-1,-1,-1,-1,-1],"loss_changes":[3.819651E3,1.9270032E2,2.5238806E2,1.2880298E2,4.820576E1,3.786267E1,1.4325604E2,1.3641832E2,1.536084E1,0E0,1.133379E1,1.0358971E2,6.4449463E0,5.176529E1,1.16177246E2,1.8248367E1,4.9608185E1,1.036499E1,5.820365E0,6.4197464E0,0E0,2.1842796E1,3.38291E1,0E0,5.4663086E0,6.856054E1,2.3684052E1,2.592717E1,4.0299698E1,1.0120728E1,1.5095161E1,5.841936E0,2.5783867E1,7.5498047E0,4.3462383E1,0E0,0E0,0E0,2.2332458E0,9.928417E-2,9.888668E0,1.8887238E1,2.2848152E1,8.716183E0,4.2250977E0,2.0926601E1,1.5701221E1,0E0,2.0207245E1,1.1050049E1,1.3604564E1,3.0408691E1,9.637637E0,0E0,0E0,0E0,0E0,0E0,0E0,0E0,0E0,0E0,0E0,0E0,0E0,0E0,0E0,0E0,0E0,0E0,0E0,0E0,0E0,0E0,0E0,0E0,0E0,0E0,0E0,0E0,0E0,0E0,0E0,0E0,0E0,0E0,0E0,0E0,0E0,0E0,0E0,0E0,0E0],"parents":[2147483647,0,0,1,1,2,2,3,3,4,4,5,5,6,6,7,7,8,8,10,10,11,11,12,12,13,13,14,14,15,15,16,16,17,17,18,18,19,19,21,21,22,22,24,24,25,25,26,26,27,27,28,28,29,29,30,30,31,31,32,32,33,33,34,34,38,38,39,39,40,40,41,41,42,42,43,43,44,44,45,45,46,46,48,48,49,49,50,50,51,51,52,52],"right_children":[2,4,6,8,10,12,14,16,18,-1,20,22,24,26,28,30,32,34,36,38,-1,40,42,-1,44,46,48,50,52,54,56,58,60,62,64,-1,-1,-1,66,68,70,72,74,76,78,80,82,-1,84,86,88,90,92,-1,-1,-1,-1,-1,-1,-1,-1,-1,-1,-1,-1,-1,-1,-1,-1,-1,-1,-1,-1,-1,-1,-1,-1,-1,-1,-1,-1,-1,-1,-1,-1,-1,-1,-1,-1,-1,-1,-1,-1],"split_conditions":[6.03727E-1,3.9026982E-1,3.2786852E-1,4.2792276E-1,4.499205E-1,7.3608905E-1,4.6310434E-1,5.2811104E-1,6.3077825E-1,-1.2181034E-1,5.288007E-1,3.9943543E-1,5.5585986E-1,6.009539E-1,6.5561223E-1,3.9043698E-1,5.685046E-1,6.2703896E-1,2.1334326E-1,4.2593858E-1,-9.065294E-2,4.744898E-1,5.470738E-1,-4.4273715E-2,8.5066274E-2,5.427852E-1,7.558886E-2,6.593857E-1,6.352041E-1,5.048882E-1,6.6321427E-1,6.2416106E-1,5.078498E-1,4.9944076E-1,6.18678E-1,-7.8459315E-2,1.1708286E-1,-7.404999E-2,6.101271E-1,5.9423095E-1,2.6593077E-1,2.7751827E-1,6.989796E-1,1.7041029E-1,5.846648E-2,6.225256E-1,4.8322147E-1,-1.3933729E-1,6.378446E-1,5.063593E-1,5.713311E-1,3.610915E-1,6.136796E-1,-1.2668042E-1,8.316659E-2,-1.12021975E-1,1.0581515E-1,-1.2448378E-1,7.2899185E-2,-1.19041204E-1,9.104466E-2,-1.2500025E-1,-3.5018127E-2,-1.1724985E-1,1.1268357E-1,1.2890641E-1,-6.6592205E-5,1.0079384E-1,2.5305796E-2,3.175559E-2,-1.586323E-1,-1.3389991E-1,1.0764044E-1,-1.4351158E-1,8.0288716E-2,-1.2971419E-1,9.970529E-2,4.301417E-2,1.2139087E-1,-1.3138998E-1,2.3367748E-2,9.882181E-2,-1.0911316E-1,1.0145521E-1,-1.7801574E-1,1.8218314E-2,-1.4193441E-1,-1.2370672E-1,8.894261E-2,1.10012375E-1,-1.0151178E-1,7.117129E-2,-1.4659058E-1],"split_indices":[639,644,651,651,557,645,75,48,656,0,607,48,419,645,643,412,638,516,6,281,0,49,9,0,544,12,322,501,93,16,384,12,457,412,4,0,0,0,595,1,615,587,599,6,344,457,584,0,66,293,655,620,32,0,0,0,0,0,0,0,0,0,0,0,0,0,0,0,0,0,0,0,0,0,0,0,0,0,0,0,0,0,0,0,0,0,0,0,0,0,0,0,0],"split_type":[0,0,0,0,0,0,0,0,0,0,0,0,0,0,0,0,0,0,0,0,0,0,0,0,0,0,0,0,0,0,0,0,0,0,0,0,0,0,0,0,0,0,0,0,0,0,0,0,0,0,0,0,0,0,0,0,0,0,0,0,0,0,0,0,0,0,0,0,0,0,0,0,0,0,0,0,0,0,0,0,0,0,0,0,0,0,0,0,0,0,0,0,0],"sum_hessian":[3.90464E3,1.8221896E3,2.0824504E3,1.7620531E3,6.0136444E1,1.59271E3,4.8974048E2,2.2448587E2,1.5375673E3,1.0086737E1,5.004971E1,3.6921057E2,1.2234994E3,3.1925125E2,1.704892E2,1.2360755E2,1.0087832E2,1.5328872E3,4.680084E0,4.804132E1,2.0083904E0,2.814661E1,3.4106396E2,1.9135647E0,1.2215858E3,9.140725E1,2.2784401E2,9.797686E1,7.2512344E1,1.126697E2,1.0937858E1,1.6496925E1,8.438139E1,1.4783699E3,5.4517315E1,1.5532053E0,3.1268792E0,1.0533868E0,4.6987934E1,4.3954544E0,2.3751156E1,3.2464697E2,1.6416992E1,5.007853E0,1.2165779E3,4.173368E1,4.967357E1,3.4287817E0,2.2441524E2,8.6135704E1,1.1841155E1,6.0525913E1,1.1986436E1,1.1096826E2,1.7014337E0,4.657861E0,6.2799964E0,1.549173E1,1.0051953E0,5.4542947E0,7.892709E1,1.4680487E3,1.0321183E1,4.536019E1,9.157124E0,4.56066E1,1.3813324E0,3.3430603E0,1.0523943E0,2.7710266E0,2.098013E1,2.463915E0,3.2218304E2,8.694157E0,7.7228355E0,1.6964251E0,3.3114278E0,8.326763E0,1.2082512E3,2.9932121E1,1.1801559E1,4.6554207E1,3.119361E0,2.2267107E2,1.7441634E0,4.319131E0,8.181657E1,3.4482083E0,8.392947E0,5.355729E1,6.968621E0,1.8506526E0,1.0135783E1],"tree_param":{"num_deleted":"0","num_feature":"660","num_nodes":"93","size_leaf_vector":"1"}},{"base_weights":[-2.1489637E-3,-1.0194751E0,8.9543194E-1,-1.177022E0,-3.244391E-1,2.9979903E-1,1.0826983E0,-1.1920967E0,8.1109375E-1,-9.3106395E-1,1.4528958E-1,6.5238625E-1,-8.8295144E-1,8.560119E-1,1.1924316E0,-1.1984863E0,1.6943854E-1,-7.483266E-2,1.11082986E-1,-2.603437E-1,-1.1827166E0,-9.3926924E-1,5.775853E-1,3.5416073E-1,1.1476287E0,-1.0307218E0,8.662554E-1,1.0773033E0,1.12580016E-1,6.798155E-1,1.202513E0,-1.2145045E0,-7.5107014E-1,1.2941532E-1,-9.490337E-2,-1.2838907E0,4.546231E-1,-1.2576164E0,7.093747E-1,-1.1861005E0,4.679625E-1,-4.912178E-1,7.975034E-1,6.087479E-1,-1.0977944E0,1.1738831E0,-1.17776275E-1,-1.1461713E0,8.360709E-1,1.1673816E-1,-6.885054E-2,1.1068337E0,-3.7896827E-1,-6.627147E-1,7.8296614E-1,1.152917E0,-1.9557151E-1,5.4911632E-2,1.2056719E0,1.2023586E-2,-1.2172271E-1,-1.23700105E-1,6.642992E-2,-1.412413E-1,2.9955843E-2,-8.929874E-2,8.872995E-2,-1.2804599E-1,3.8276363E-2,9.783497E-2,9.95765E-3,-1.2514596E-1,7.726859E-2,-9.12774E-2,1.1476741E-1,8.618007E-2,-1.0508589E-1,-9.6794516E-2,9.362797E-2,-1.8597765E-2,9.998927E-2,-1.3935234E-1,8.487777E-2,1.2050289E-1,-5.250528E-2,-1.290329E-1,2.1571175E-3,6.267428E-3,1.0314798E-1,-6.0039293E-2,1.1225486E-1,9.498259E-2,-1.3615756E-1,9.062345E-2,-1.1354144E-1,9.985664E-2,-6.7224115E-2,2.0622296E-2,1.1969874E-1,7.828116E-2,-8.548E-2,5.502112E-2,1.2120896E-1],"categories":[],"categories_nodes":[],"categories_segments":[],"categories_sizes":[],"default_left":[0,0,0,0,0,0,0,0,0,0,0,0,0,0,0,0,0,0,0,0,0,0,0,0,0,0,0,0,0,0,0,0,0,0,0,0,0,0,0,0,0,0,0,0,0,0,0,0,0,0,0,0,0,0,0,0,0,0,0,0,0,0,0,0,0,0,0,0,0,0,0,0,0,0,0,0,0,0,0,0,0,0,0,0,0,0,0,0,0,0,0,0,0,0,0,0,0,0,0,0,0,0,0],"id":10,"left_children":[1,3,5,7,9,11,13,15,17,19,21,23,25,27,29,31,33,-1,-1,35,37,39,41,43,45,47,49,51,53,55,57,59,61,-1,-1,63,65,67,69,71,73,75,77,79,81,83,-1,85,87,-1,-1,89,91,93,95,97,-1,99,101,-1,-1,-1,-1,-1,-1,-1,-1,-1,-1,-1,-1,-1,-1,-1,-1,-1,-1,-1,-1,-1,-1,-1,-1,-1,-1,-1,-1,-1,-1,-1,-1,-1,-1,-1,-1,-1,-1,-1,-1,-1,-1,-1,-1],"loss_changes":[3.336402E3,1.8715527E2,2.1619434E2,4.279956E1,9.07088E1,1.9478203E2,3.5705933E1,1.2258179E1,6.01909E0,2.3128525E1,8.493916E1,5.2663727E1,2.8646263E1,7.969003E1,4.310791E0,8.973389E0,1.047265E1,0E0,0E0,2.9244846E1,1.5161026E1,1.8506752E1,3.078965E1,8.410509E1,9.60051E0,2.2394753E1,4.9739738E0,1.6491608E1,5.8937183E1,2.8987354E1,3.4569092E0,4.979492E0,3.5414307E1,0E0,0E0,3.7541714E0,1.4667843E1,4.1328278E0,6.3629365E-1,6.632412E0,8.9586315E0,1.8085129E1,2.727774E1,6.0083817E1,2.0772514E1,7.702347E0,0E0,1.5867302E1,8.98221E-1,0E0,0E0,1.0508362E1,1.1964505E1,4.008545E1,1.9726582E1,5.3775597E-1,0E0,3.1294847E0,3.40979E0,0E0,0E0,0E0,0E0,0E0,0E0,0E0,0E0,0E0,0E0,0E0,0E0,0E0,0E0,0E0,0E0,0E0,0E0,0E0,0E0,0E0,0E0,0E0,0E0,0E0,0E0,0E0,0E0,0E0,0E0,0E0,0E0,0E0,0E0,0E0,0E0,0E0,0E0,0E0,0E0,0E0,0E0,0E0,0E0],"parents":[2147483647,0,0,1,1,2,2,3,3,4,4,5,5,6,6,7,7,8,8,9,9,10,10,11,11,12,12,13,13,14,14,15,15,16,16,19,19,20,20,21,21,22,22,23,23,24,24,25,25,26,26,27,27,28,28,29,29,30,30,31,31,32,32,35,35,36,36,37,37,38,38,39,39,40,40,41,41,42,42,43,43,44,44,45,45,47,47,48,48,51,51,52,52,53,53,54,54,55,55,57,57,58,58],"right_children":[2,4,6,8,10,12,14,16,18,20,22,24,26,28,30,32,34,-1,-1,36,38,40,42,44,46,48,50,52,54,56,58,60,62,-1,-1,64,66,68,70,72,74,76,78,80,82,84,-1,86,88,-1,-1,90,92,94,96,98,-1,100,102,-1,-1,-1,-1,-1,-1,-1,-1,-1,-1,-1,-1,-1,-1,-1,-1,-1,-1,-1,-1,-1,-1,-1,-1,-1,-1,-1,-1,-1,-1,-1,-1,-1,-1,-1,-1,-1,-1,-1,-1,-1,-1,-1,-1],"split_conditions":[6.0566187E-1,5.636591E-1,6.836248E-1,4.057406E-1,5.2811104E-1,4.9744898E-1,7.6506054E-1,5.804555E-1,4.499205E-1,3.8538966E-1,5.992695E-1,4.0095046E-1,4.1884902E-1,6.2321144E-1,6.5233827E-1,6.0401005E-1,1.0699546E-1,-7.483266E-2,1.11082986E-1,5.033479E-1,3.737421E-1,3.2183337E-1,5.385665E-1,4.7149643E-1,5.114024E-1,3.172854E-1,4.7380832E-1,3.90091E-1,7.5039744E-1,6.65716E-1,5.7746476E-1,1.9759157E-1,5.8029455E-1,1.2941532E-1,-9.490337E-2,3.7995893E-1,4.4483957E-1,7.228669E-1,4.7045866E-1,3.833336E-1,3.8540497E-1,3.9597315E-1,5.078498E-1,4.5302013E-1,4.889684E-1,5.775611E-1,-1.17776275E-1,6.9132656E-1,4.8277536E-1,1.1673816E-1,-6.885054E-2,3.9667457E-1,5.063593E-1,4.6564886E-1,2.785235E-1,1.2855628E-1,-1.9557151E-1,5.267335E-1,5.8348097E-2,1.2023586E-2,-1.2172271E-1,-1.23700105E-1,6.642992E-2,-1.412413E-1,2.9955843E-2,-8.929874E-2,8.872995E-2,-1.2804599E-1,3.8276363E-2,9.783497E-2,9.95765E-3,-1.2514596E-1,7.726859E-2,-9.12774E-2,1.1476741E-1,8.618007E-2,-1.0508589E-1,-9.6794516E-2,9.362797E-2,-1.8597765E-2,9.998927E-2,-1.3935234E-1,8.487777E-2,1.2050289E-1,-5.250528E-2,-1.290329E-1,2.1571175E-3,6.267428E-3,1.0314798E-1,-6.0039293E-2,1.1225486E-1,9.498259E-2,-1.3615756E-1,9.062345E-2,-1.1354144E-1,9.985664E-2,-6.7224115E-2,2.0622296E-2,1.1969874E-1,7.828116E-2,-8.548E-2,5.502112E-2,1.2120896E-1],"split_indices":[639,639,645,446,48,5,640,590,557,541,626,644,16,139,573,616,42,0,0,107,586,82,435,624,153,578,21,651,645,10,649,659,57,0,0,456,79,149,2,344,59,584,589,188,350,482,0,621,19,0,0,8,7,31,650,104,0,0,388,0,0,0,0,0,0,0,0,0,0,0,0,0,0,0,0,0,0,0,0,0,0,0,0,0,0,0,0,0,0,0,0,0,0,0,0,0,0,0,0,0,0,0,0],"split_type":[0,0,0,0,0,0,0,0,0,0,0,0,0,0,0,0,0,0,0,0,0,0,0,0,0,0,0,0,0,0,0,0,0,0,0,0,0,0,0,0,0,0,0,0,0,0,0,0,0,0,0,0,0,0,0,0,0,0,0,0,0,0,0,0,0,0,0,0,0,0,0,0,0,0,0,0,0,0,0,0,0,0,0,0,0,0,0,0,0,0,0,0,0,0,0,0,0,0,0,0,0,0,0],"sum_hessian":[3.6517986E3,1.7116565E3,1.9401422E3,1.3947979E3,3.168586E2,4.6469647E2,1.4754458E3,1.3846989E3,1.0098983E1,1.3785085E2,1.7900778E2,3.583253E2,1.0637117E2,4.8413086E2,9.9131494E2,1.3783501E3,6.348754E0,1.3868867E0,8.712096E0,3.8165173E1,9.968567E1,5.0682064E1,1.2832571E2,2.2471895E2,1.3360634E2,9.8463844E1,7.907326E0,3.7273325E2,1.113976E2,2.0439682E1,9.7087524E2,1.3290535E3,4.9296585E1,3.0872254E0,3.2615285E0,1.5368246E1,2.2796928E1,9.6212364E1,3.4733095E0,4.325261E1,7.429454E0,2.1688051E1,1.06637665E2,1.916888E2,3.3030155E1,1.3260439E2,1.0019581E0,9.309267E1,5.371182E0,6.833056E0,1.0742702E0,3.6556033E2,7.1729255E0,5.1662216E1,5.9735382E1,1.7805908E1,2.6337733E0,2.7155178E0,9.681597E2,2.6176028E0,1.3264359E3,3.6791267E1,1.250532E1,1.4314419E1,1.0538276E0,5.281947E0,1.751498E1,9.510734E1,1.1050235E0,1.9908056E0,1.482504E0,4.2205437E1,1.0471718E0,2.3377552E0,5.0916986E0,6.1879096E0,1.5500142E1,7.336112E0,9.930155E1,6.339921E1,1.2828958E2,2.892057E1,4.1095843E0,1.3050266E2,2.101729E0,8.276977E1,1.0322898E1,1.3497652E0,4.0214167E0,2.9949002E0,3.6256543E2,3.0634878E0,4.109438E0,1.1748923E1,3.9913292E1,5.230046E1,7.4349213E0,1.0446532E0,1.6761255E1,1.5859916E0,1.1295261E0,1.022835E1,9.579314E2],"tree_param":{"num_deleted":"0","num_feature":"660","num_nodes":"103","size_leaf_vector":"1"}},{"base_weights":[-2.2641E-3,-9.761964E-1,8.7958366E-1,-1.076541E0,7.615886E-1,4.4055915E-1,1.0986664E0,-1.1662397E0,-5.55525E-1,-1.1511411E-1,9.9677885E-1,8.633655E-1,-9.884663E-2,9.249396E-1,1.1855159E0,-1.1774025E0,-2.7132836E-1,5.407056E-1,-1.0745649E0,-1.2716864E-1,1.0561985E0,-1.24225095E-1,9.311208E-1,3.193418E-1,-1.0932872E0,5.2322656E-1,1.1253299E0,-3.3925906E-2,1.1879332E0,-1.1797096E0,4.5295786E-2,1.1413951E0,-1.1306912E-1,-7.2762465E-1,9.7038716E-1,-1.2031229E0,4.132488E-2,-8.692501E-2,1.2017299E0,-1.4121124E0,8.551566E-1,1.0546659E0,4.4538665E-1,-7.412358E-2,8.984536E-1,-1.2003508E0,4.2905548E-1,6.3778687E-1,-1.4679569E-1,-4.8568457E-2,1.1513838E0,-1.6092645E-2,1.1906847E0,-1.1842493E-1,-3.0042574E-2,1.283473E-1,2.7339429E-2,7.112465E-2,-1.3954681E-1,-4.9157172E-2,1.1738523E-1,-1.254976E-1,6.392502E-2,1.0799094E-1,-1.1863071E-1,-1.0863521E-1,7.913404E-2,-1.13706775E-2,1.2347855E-1,-1.6589926E-1,3.390586E-2,-8.3235435E-2,1.0803842E-1,-1.1413901E-1,1.07551455E-1,9.473793E-2,-4.7920655E-2,3.495615E-2,-1.2573907E-1,-1.7843322E-1,9.792879E-2,-1.2910737E-1,3.638573E-2,-8.5080564E-2,1.03837065E-1,7.3749565E-2,-1.01240866E-1,9.596842E-2,-1.1582904E-1,-4.9219858E-2,1.16511516E-1,3.1133762E-2,1.191921E-1],"categories":[],"categories_nodes":[],"categories_segments":[],"categories_sizes":[],"default_left":[0,0,0,0,0,0,0,0,0,0,0,0,0,0,0,0,0,0,0,0,0,0,0,0,0,0,0,0,0,0,0,0,0,0,0,0,0,0,0,0,0,0,0,0,0,0,0,0,0,0,0,0,0,0,0,0,0,0,0,0,0,0,0,0,0,0,0,0,0,0,0,0,0,0,0,0,0,0,0,0,0,0,0,0,0,0,0,0,0,0,0,0,0],"id":11,"left_children":[1,3,5,7,9,11,13,15,17,-1,19,21,23,25,27,29,31,33,35,-1,37,39,41,43,45,47,49,-1,51,53,-1,55,-1,57,59,61,63,65,67,69,71,73,75,77,79,81,83,85,-1,87,89,-1,91,-1,-1,-1,-1,-1,-1,-1,-1,-1,-1,-1,-1,-1,-1,-1,-1,-1,-1,-1,-1,-1,-1,-1,-1,-1,-1,-1,-1,-1,-1,-1,-1,-1,-1,-1,-1,-1,-1,-1,-1],"loss_changes":[2.9294045E3,2.834469E2,1.7168555E2,7.0982666E1,4.1213757E1,1.3636877E2,1.6910522E1,1.2734009E1,1.2975653E2,0E0,1.2106041E1,2.2538223E1,1.09918495E2,3.1798279E1,3.3226318E0,5.387451E0,2.2412262E1,4.0825485E1,2.2200897E1,0E0,1.3139908E1,2.9456251E1,1.8355194E1,4.250571E1,1.32645035E1,3.1906914E1,8.239044E0,0E0,3.1276855E0,4.788452E0,0E0,5.21986E-1,0E0,1.9442717E1,1.706107E1,1.4032761E1,2.2851786E1,9.445582E0,3.1656952E0,4.908024E0,5.9711456E0,1.2644287E1,3.0780815E1,5.650098E1,1.8104267E1,1.0878464E1,5.4662046E0,2.198552E1,0E0,8.685098E0,6.4816284E0,0E0,4.8742676E-1,0E0,0E0,0E0,0E0,0E0,0E0,0E0,0E0,0E0,0E0,0E0,0E0,0E0,0E0,0E0,0E0,0E0,0E0,0E0,0E0,0E0,0E0,0E0,0E0,0E0,0E0,0E0,0E0,0E0,0E0,0E0,0E0,0E0,0E0,0E0,0E0,0E0,0E0,0E0,0E0],"parents":[2147483647,0,0,1,1,2,2,3,3,4,4,5,5,6,6,7,7,8,8,10,10,11,11,12,12,13,13,14,14,15,15,16,16,17,17,18,18,20,20,21,21,22,22,23,23,24,24,25,25,26,26,28,28,29,29,31,31,33,33,34,34,35,35,36,36,37,37,38,38,39,39,40,40,41,41,42,42,43,43,44,44,45,45,46,46,47,47,49,49,50,50,52,52],"right_children":[2,4,6,8,10,12,14,16,18,-1,20,22,24,26,28,30,32,34,36,-1,38,40,42,44,46,48,50,-1,52,54,-1,56,-1,58,60,62,64,66,68,70,72,74,76,78,80,82,84,86,-1,88,90,-1,92,-1,-1,-1,-1,-1,-1,-1,-1,-1,-1,-1,-1,-1,-1,-1,-1,-1,-1,-1,-1,-1,-1,-1,-1,-1,-1,-1,-1,-1,-1,-1,-1,-1,-1,-1,-1,-1,-1,-1,-1],"split_conditions":[6.152623E-1,3.9026982E-1,7.0927316E-1,6.212849E-1,4.5071542E-1,4.6564886E-1,7.7980924E-1,5.704525E-1,4.333349E-1,-1.1511411E-1,3.59251E-1,4.83076E-1,3.5756293E-1,4.5843232E-1,7.9048425E-2,6.8753034E-1,1.0142868E-1,4.8854962E-1,5.6842065E-1,-1.2716864E-1,6.0002E-1,6.157059E-1,4.438836E-1,7.3608905E-1,3.9564708E-1,3.9281473E-1,5.633803E-1,-3.3925906E-2,6.593472E-2,5.134104E-1,4.5295786E-2,3.8702962E-1,-1.1306912E-1,4.629499E-1,4.729259E-1,3.9254507E-1,4.6083274E-1,1.3463241E-1,3.6241612E-1,4.7328246E-1,4.7598255E-1,2.756868E-1,3.8931298E-1,6.216216E-1,7.117162E-2,6.09704E-1,4.7091797E-1,3.1543624E-1,-1.4679569E-1,5.2130324E-1,7.6648004E-2,-1.6092645E-2,4.0546075E-1,-1.1842493E-1,-3.0042574E-2,1.283473E-1,2.7339429E-2,7.112465E-2,-1.3954681E-1,-4.9157172E-2,1.1738523E-1,-1.254976E-1,6.392502E-2,1.0799094E-1,-1.1863071E-1,-1.0863521E-1,7.913404E-2,-1.13706775E-2,1.2347855E-1,-1.6589926E-1,3.390586E-2,-8.3235435E-2,1.0803842E-1,-1.1413901E-1,1.07551455E-1,9.473793E-2,-4.7920655E-2,3.495615E-2,-1.2573907E-1,-1.7843322E-1,9.792879E-2,-1.2910737E-1,3.638573E-2,-8.5080564E-2,1.03837065E-1,7.3749565E-2,-1.01240866E-1,9.596842E-2,-1.1582904E-1,-4.9219858E-2,1.16511516E-1,3.1133762E-2,1.191921E-1],"split_indices":[645,644,638,648,557,9,645,636,2,0,497,8,620,8,504,613,216,647,101,0,648,176,624,645,82,492,649,0,478,412,0,109,0,576,243,102,620,14,518,31,503,609,207,183,36,195,123,650,0,0,192,0,369,0,0,0,0,0,0,0,0,0,0,0,0,0,0,0,0,0,0,0,0,0,0,0,0,0,0,0,0,0,0,0,0,0,0,0,0,0,0,0,0],"split_type":[0,0,0,0,0,0,0,0,0,0,0,0,0,0,0,0,0,0,0,0,0,0,0,0,0,0,0,0,0,0,0,0,0,0,0,0,0,0,0,0,0,0,0,0,0,0,0,0,0,0,0,0,0,0,0,0,0,0,0,0,0,0,0,0,0,0,0,0,0,0,0,0,0,0,0,0,0,0,0,0,0,0,0,0,0,0,0,0,0,0,0,0,0],"sum_hessian":[3.4088057E3,1.6197788E3,1.7890269E3,1.5317139E3,8.806492E1,5.965663E2,1.1924606E3,1.3056869E3,2.2602698E2,9.216385E0,7.884853E1,3.34092E2,2.624743E2,4.0132727E2,7.911333E2,1.2892891E3,1.6397827E1,7.261655E1,1.5341043E2,1.4918631E0,7.7356674E1,2.1395885E1,3.126961E2,1.8525047E2,7.722382E1,1.347704E2,2.665569E2,1.0316582E0,7.901016E2,1.2877433E3,1.5458235E0,6.077961E0,1.0319866E1,1.8200138E1,5.441641E1,1.3749223E2,1.5918188E1,8.781588E0,6.857509E1,9.051422E0,1.2344463E1,2.4835616E2,6.4339966E1,1.1082485E2,7.442562E1,7.234729E1,4.876539E0,1.280811E2,6.6892962E0,5.768828E0,2.6078806E2,1.4913858E0,7.886103E2,1.2807838E3,6.959488E0,4.811707E0,1.2662542E0,5.7489705E0,1.2451167E1,6.475068E0,4.794134E1,1.3403859E2,3.453648E0,8.688225E0,7.2299633E0,3.9966488E0,4.7849383E0,1.6211662E0,6.695392E1,7.979158E0,1.072264E0,1.1361651E0,1.1208298E1,1.830178E0,2.4652597E2,4.1683792E1,2.2656174E1,8.2123856E1,2.8700998E1,1.5605066E0,7.286511E1,6.8546265E1,3.8010213E0,1.4449995E0,3.43154E0,1.21304665E2,6.776436E0,3.0934427E0,2.6753855E0,1.8720182E0,2.5891605E2,1.4621242E0,7.8714813E2],"tree_param":{"num_deleted":"0","num_feature":"660","num_nodes":"93","size_leaf_vector":"1"}},{"base_weights":[-2.5250737E-3,-9.4101804E-1,8.594374E-1,-1.1346768E0,-2.9023954E-1,4.292214E-1,1.0736483E0,-1.1496748E0,7.621942E-1,2.706174E-1,-9.7276944E-1,8.230995E-1,3.352237E-2,8.985458E-1,1.1622946E0,-1.1581864E0,1.07447915E-1,-6.856538E-2,1.0523241E-1,-7.305449E-1,5.0703835E-1,-1.0765564E0,6.043965E-1,1.0380965E0,3.258597E-1,-5.41933E-1,5.948387E-1,1.0501273E0,3.1185952E-1,-3.1864192E-2,1.1648679E0,-1.1635413E0,-3.1677136E-1,-9.542339E-2,1.0824543E-1,1.1820891E-1,-1.0206981E0,1.702551E-2,9.0388E-1,-1.1321404E0,3.2081452E-1,-1.03540674E-1,1.0646166E-1,-1.0220804E-1,1.0637075E0,-4.9252635E-1,1.0667531E0,-8.128678E-1,6.9955075E-1,-1.5375382E-1,6.7574215E-1,1.077651E0,-4.449237E-1,7.026282E-1,-7.246906E-1,-1.6658675E-2,1.1678001E0,1.1768616E-2,-1.1665068E-1,1.0539409E-1,-1.0676283E-1,2.7399054E-2,-1.2122089E-1,-4.455938E-2,8.957895E-2,-5.8271576E-2,1.0333311E-1,-1.16612814E-1,7.402521E-2,-8.4653966E-2,1.04090594E-1,1.0823804E-1,-8.565999E-2,9.889542E-2,-1.0024625E-1,1.2116843E-1,-1.9202451E-1,-7.954768E-3,-1.3642807E-1,-1.5070343E-1,1.022548E-1,-7.631087E-3,9.021148E-2,8.783816E-3,1.1155422E-1,8.719321E-2,-1.3981861E-1,-1.5549146E-1,8.4239274E-2,-1.607955E-1,6.523592E-2,2.6468743E-2,1.1691349E-1],"categories":[],"categories_nodes":[],"categories_segments":[],"categories_sizes":[],"default_left":[0,0,0,0,0,0,0,0,0,0,0,0,0,0,0,0,0,0,0,0,0,0,0,0,0,0,0,0,0,0,0,0,0,0,0,0,0,0,0,0,0,0,0,0,0,0,0,0,0,0,0,0,0,0,0,0,0,0,0,0,0,0,0,0,0,0,0,0,0,0,0,0,0,0,0,0,0,0,0,0,0,0,0,0,0,0,0,0,0,0,0,0,0],"id":12,"left_children":[1,3,5,7,9,11,13,15,17,19,21,23,25,27,29,31,33,-1,-1,35,37,39,41,43,45,47,49,51,53,-1,55,57,59,-1,-1,-1,61,63,65,67,69,-1,-1,-1,71,73,75,77,79,-1,81,83,85,87,89,-1,91,-1,-1,-1,-1,-1,-1,-1,-1,-1,-1,-1,-1,-1,-1,-1,-1,-1,-1,-1,-1,-1,-1,-1,-1,-1,-1,-1,-1,-1,-1,-1,-1,-1,-1,-1,-1],"loss_changes":[2.571096E3,1.9143811E2,1.5221704E2,3.422754E1,1.343597E2,8.606278E1,1.611316E1,1.2574341E1,4.837181E0,4.607006E1,2.6551117E1,2.9250717E1,8.9664085E1,3.3102997E1,3.154602E0,4.8389893E0,1.0080124E1,0E0,0E0,2.1902752E1,3.0471653E1,1.1922211E1,8.958422E0,1.1258438E1,5.20678E1,4.6682995E1,2.5276077E1,1.2754791E1,3.2348495E1,0E0,3.0422363E0,4.4995117E0,1.0061798E1,0E0,0E0,0E0,8.493961E0,2.933362E1,1.7268784E1,9.985596E0,6.321886E0,0E0,0E0,0E0,7.772217E0,3.202188E1,2.1777878E1,4.5584618E1,1.9428288E1,0E0,2.3230667E1,1.0898926E1,8.876987E0,1.9481808E1,2.782308E1,0E0,5.679321E-1,0E0,0E0,0E0,0E0,0E0,0E0,0E0,0E0,0E0,0E0,0E0,0E0,0E0,0E0,0E0,0E0,0E0,0E0,0E0,0E0,0E0,0E0,0E0,0E0,0E0,0E0,0E0,0E0,0E0,0E0,0E0,0E0,0E0,0E0,0E0,0E0],"parents":[2147483647,0,0,1,1,2,2,3,3,4,4,5,5,6,6,7,7,8,8,9,9,10,10,11,11,12,12,13,13,14,14,15,15,16,16,19,19,20,20,21,21,22,22,23,23,24,24,25,25,26,26,27,27,28,28,30,30,31,31,32,32,36,36,37,37,38,38,39,39,40,40,44,44,45,45,46,46,47,47,48,48,50,50,51,51,52,52,53,53,54,54,56,56],"right_children":[2,4,6,8,10,12,14,16,18,20,22,24,26,28,30,32,34,-1,-1,36,38,40,42,44,46,48,50,52,54,-1,56,58,60,-1,-1,-1,62,64,66,68,70,-1,-1,-1,72,74,76,78,80,-1,82,84,86,88,90,-1,92,-1,-1,-1,-1,-1,-1,-1,-1,-1,-1,-1,-1,-1,-1,-1,-1,-1,-1,-1,-1,-1,-1,-1,-1,-1,-1,-1,-1,-1,-1,-1,-1,-1,-1,-1,-1],"split_conditions":[6.661163E-1,5.636591E-1,7.0927316E-1,4.057406E-1,4.1221374E-1,5.302067E-1,7.7980924E-1,6.520468E-1,4.499205E-1,5.9646755E-1,6.8255806E-1,4.364608E-1,7.028243E-1,6.2559617E-1,7.9048425E-2,3.9026982E-1,5.6844074E-1,-6.856538E-2,1.0523241E-1,1.3422555E-1,5.6311655E-1,6.8395907E-1,3.9038032E-1,8.3009295E-2,3.8056013E-1,3.4686756E-1,6.2091853E-2,7.1179825E-1,3.263416E-1,-3.1864192E-2,6.615729E-2,1.9759157E-1,6.18678E-1,-9.542339E-2,1.0824543E-1,1.1820891E-1,1.03276104E-1,6.152623E-1,3.8314787E-1,4.007336E-1,5.52901E-1,-1.03540674E-1,1.0646166E-1,-1.0220804E-1,4.6245956E-1,2.9838857E-1,4.3421978E-1,3.5837293E-1,4.1543165E-1,-1.5375382E-1,7.3366356E-1,6.191766E-1,5.063613E-1,8.849259E-2,2.6716045E-1,-1.6658675E-2,4.4870075E-2,1.1768616E-2,-1.1665068E-1,1.0539409E-1,-1.0676283E-1,2.7399054E-2,-1.2122089E-1,-4.455938E-2,8.957895E-2,-5.8271576E-2,1.0333311E-1,-1.16612814E-1,7.402521E-2,-8.4653966E-2,1.04090594E-1,1.0823804E-1,-8.565999E-2,9.889542E-2,-1.0024625E-1,1.2116843E-1,-1.9202451E-1,-7.954768E-3,-1.3642807E-1,-1.5070343E-1,1.022548E-1,-7.631087E-3,9.021148E-2,8.783816E-3,1.1155422E-1,8.719321E-2,-1.3981861E-1,-1.5549146E-1,8.4239274E-2,-1.607955E-1,6.523592E-2,2.6468743E-2,1.1691349E-1],"split_indices":[648,639,638,446,9,7,645,638,557,648,618,646,618,29,504,644,13,0,0,534,13,215,496,94,600,644,36,120,431,0,456,659,4,0,0,0,236,645,139,608,369,0,0,0,541,15,593,624,136,0,626,639,53,80,306,0,256,0,0,0,0,0,0,0,0,0,0,0,0,0,0,0,0,0,0,0,0,0,0,0,0,0,0,0,0,0,0,0,0,0,0,0,0],"split_type":[0,0,0,0,0,0,0,0,0,0,0,0,0,0,0,0,0,0,0,0,0,0,0,0,0,0,0,0,0,0,0,0,0,0,0,0,0,0,0,0,0,0,0,0,0,0,0,0,0,0,0,0,0,0,0,0,0,0,0,0,0,0,0,0,0,0,0,0,0,0,0,0,0,0,0,0,0,0,0,0,0,0,0,0,0,0,0,0,0,0,0,0,0],"sum_hessian":[3.1763296E3,1.520614E3,1.6557156E3,1.1713114E3,3.493027E2,5.513671E2,1.1043485E3,1.1625137E3,8.797679E0,1.9207333E2,1.5722935E2,2.7577805E2,2.7558905E2,3.74916E2,7.294325E2,1.1547737E3,7.7400274E0,1.2410659E0,7.5566134E0,3.629335E1,1.5577998E2,1.4781937E2,9.409988E0,1.9177184E2,8.400621E1,1.3609772E2,1.3949135E2,2.9731036E2,7.760562E1,1.052181E0,7.283803E2,1.1470907E3,7.682962E0,3.7155166E0,4.024511E0,4.375681E0,3.191767E1,7.017368E1,8.560629E1,1.4234697E2,5.4724083E0,1.7883035E0,7.621685E0,1.8769848E0,1.8989485E2,4.0074932E1,4.3931282E1,1.1200055E2,2.4097162E1,4.440782E0,1.3505057E2,2.9221E2,5.100381E0,5.6592854E1,2.1012772E1,1.477918E0,7.2690234E2,2.559606E0,1.1445311E3,2.5762634E0,5.106699E0,4.0573936E0,2.7860275E1,4.6294956E1,2.3878733E1,6.576889E0,7.90294E1,1.4017963E2,2.1673427E0,2.0208192E0,3.451589E0,1.8849826E2,1.3965937E0,1.0021328E1,3.0053604E1,4.246519E1,1.4660914E0,4.8562237E1,6.3438313E1,2.6088414E0,2.1488321E1,3.1399239E1,1.0365133E2,1.0896034E1,2.8131393E2,2.1775656E0,2.9228153E0,2.7090917E0,5.388376E1,1.2699442E1,8.313331E0,1.3668664E0,7.255355E2],"tree_param":{"num_deleted":"0","num_feature":"660","num_nodes":"93","size_leaf_vector":"1"}},{"base_weights":[-2.6686317E-3,-9.5542425E-1,7.9895496E-1,-1.1424017E0,-4.1165882E-1,9.919104E-1,2.2061147E-1,-1.1450057E0,7.306618E-2,3.308167E-1,-8.3084494E-1,7.559909E-1,1.1212337E0,5.6610733E-1,-4.1463545E-1,-1.1496912E0,-1.1830983E-1,-9.247438E-1,4.8972914E-1,-1.0873758E0,-1.24660976E-1,9.6102655E-1,4.6911713E-2,3.7685943E-1,1.1327575E0,6.427266E-2,8.3879375E-1,-1.0455074E0,4.2611456E-1,-9.9352725E-2,-1.1518883E0,-8.822339E-2,8.243645E-2,-1.11140326E-1,6.373252E-2,-1.1663349E-1,8.1362796E-1,-1.1248554E0,9.692844E-2,9.729157E-1,-1.0110229E0,-1.1195358E0,9.7903544E-1,-4.668849E-1,8.722975E-1,1.0775786E-1,-1.7400038E-1,2.767821E-1,1.1397438E0,4.9273098E-1,-7.2277415E-1,8.8408613E-1,-9.187553E-1,-1.2203482E0,1.8461569E-1,7.4663275E-1,-1.027093E0,-6.276026E-2,5.2622367E-2,-1.1549063E-1,-3.0894438E-2,1.0186481E-1,-7.5622484E-2,-9.748554E-2,9.090304E-2,8.0814995E-2,-1.1597077E-1,-8.014828E-2,1.1026496E-1,-1.1123415E-1,7.368457E-2,-1.6750756E-1,6.379881E-3,-8.630506E-3,1.0122569E-1,-1.0475061E-1,2.6283799E-2,-1.3293587E-1,9.975346E-2,-1.9671938E-1,9.9172704E-2,1.2250947E-2,1.1417641E-1,8.4450364E-2,-7.134786E-2,-1.1172404E-1,1.0156701E-1,1.10290445E-1,5.8152128E-2,8.683616E-3,-1.21023476E-1,2.2916459E-2,-1.3037908E-1,-1.0977496E-1,7.689555E-2,9.7368054E-2,-8.966129E-2,6.0818166E-2,-1.3321565E-1],"categories":[],"categories_nodes":[],"categories_segments":[],"categories_sizes":[],"default_left":[0,0,0,0,0,0,0,0,0,0,0,0,0,0,0,0,0,0,0,0,0,0,0,0,0,0,0,0,0,0,0,0,0,0,0,0,0,0,0,0,0,0,0,0,0,0,0,0,0,0,0,0,0,0,0,0,0,0,0,0,0,0,0,0,0,0,0,0,0,0,0,0,0,0,0,0,0,0,0,0,0,0,0,0,0,0,0,0,0,0,0,0,0,0,0,0,0,0,0],"id":13,"left_children":[1,3,5,7,9,11,13,15,-1,17,19,21,23,25,27,29,31,33,35,37,39,41,43,45,47,49,51,53,55,57,59,-1,-1,-1,-1,61,63,65,-1,67,69,71,73,75,77,-1,-1,79,81,83,85,87,89,91,93,95,97,-1,-1,-1,-1,-1,-1,-1,-1,-1,-1,-1,-1,-1,-1,-1,-1,-1,-1,-1,-1,-1,-1,-1,-1,-1,-1,-1,-1,-1,-1,-1,-1,-1,-1,-1,-1,-1,-1,-1,-1,-1,-1],"loss_changes":[2.2607139E3,1.3704187E2,1.791698E2,5.742676E0,1.0847088E2,3.5918945E1,8.877857E1,4.697998E0,0E0,2.562467E1,4.016754E1,6.243547E1,6.232422E0,3.576288E1,7.613387E1,2.1936035E0,4.817463E0,4.9419556E0,2.2217262E1,1.3659714E1,5.9755E1,1.3584686E1,4.1731865E1,2.1653183E1,4.253113E0,3.1795671E1,1.430529E1,1.782164E1,2.9591309E1,1.3818296E0,2.182129E0,0E0,0E0,0E0,0E0,2.9882793E1,1.3434963E1,1.1757294E1,0E0,7.2141476E0,6.8251343E0,2.293882E0,1.1801575E1,2.5997837E1,1.1730688E1,0E0,0E0,1.3992304E1,1.4168701E0,2.646992E1,2.3949389E1,1.0332687E1,1.4970002E0,8.978806E0,9.124314E0,2.0005592E1,6.598815E0,0E0,0E0,0E0,0E0,0E0,0E0,0E0,0E0,0E0,0E0,0E0,0E0,0E0,0E0,0E0,0E0,0E0,0E0,0E0,0E0,0E0,0E0,0E0,0E0,0E0,0E0,0E0,0E0,0E0,0E0,0E0,0E0,0E0,0E0,0E0,0E0,0E0,0E0,0E0,0E0,0E0,0E0],"parents":[2147483647,0,0,1,1,2,2,3,3,4,4,5,5,6,6,7,7,9,9,10,10,11,11,12,12,13,13,14,14,15,15,16,16,17,17,18,18,19,19,20,20,21,21,22,22,23,23,24,24,25,25,26,26,27,27,28,28,29,29,30,30,35,35,36,36,37,37,39,39,40,40,41,41,42,42,43,43,44,44,47,47,48,48,49,49,50,50,51,51,52,52,53,53,54,54,55,55,56,56],"right_children":[2,4,6,8,10,12,14,16,-1,18,20,22,24,26,28,30,32,34,36,38,40,42,44,46,48,50,52,54,56,58,60,-1,-1,-1,-1,62,64,66,-1,68,70,72,74,76,78,-1,-1,80,82,84,86,88,90,92,94,96,98,-1,-1,-1,-1,-1,-1,-1,-1,-1,-1,-1,-1,-1,-1,-1,-1,-1,-1,-1,-1,-1,-1,-1,-1,-1,-1,-1,-1,-1,-1,-1,-1,-1,-1,-1,-1,-1,-1,-1,-1,-1,-1],"split_conditions":[6.03727E-1,5.9646755E-1,3.2786852E-1,5.7760817E-1,3.918575E-1,7.6506054E-1,4.6310434E-1,4.6627504E-1,7.306618E-2,5.0793654E-1,5.750636E-1,6.2321144E-1,6.5233827E-1,2.3407616E-1,6.5561223E-1,2.0097843E-1,4.5530492E-1,3.059035E-1,5.640407E-1,3.4119818E-1,4.9872774E-1,7.313187E-2,7.827479E-1,6.65716E-1,5.846648E-2,4.4210213E-1,5.110803E-1,6.593857E-1,6.352041E-1,4.6741855E-1,5.16977E-1,-8.822339E-2,8.243645E-2,-1.11140326E-1,6.373252E-2,4.507126E-1,4.0016708E-1,3.5480997E-1,9.692844E-2,5.816327E-1,7.281001E-1,2.1540387E-1,1.0892015E-1,7.2431076E-1,4.8327646E-1,1.0775786E-1,-1.7400038E-1,6.519511E-2,7.1750224E-1,5.105634E-1,4.9188164E-1,4.331948E-1,4.224163E-1,5.063593E-1,5.713311E-1,3.610915E-1,6.136796E-1,-6.276026E-2,5.2622367E-2,-1.1549063E-1,-3.0894438E-2,1.0186481E-1,-7.5622484E-2,-9.748554E-2,9.090304E-2,8.0814995E-2,-1.1597077E-1,-8.014828E-2,1.1026496E-1,-1.1123415E-1,7.368457E-2,-1.6750756E-1,6.379881E-3,-8.630506E-3,1.0122569E-1,-1.0475061E-1,2.6283799E-2,-1.3293587E-1,9.975346E-2,-1.9671938E-1,9.9172704E-2,1.2250947E-2,1.1417641E-1,8.4450364E-2,-7.134786E-2,-1.1172404E-1,1.0156701E-1,1.10290445E-1,5.8152128E-2,8.683616E-3,-1.21023476E-1,2.2916459E-2,-1.3037908E-1,-1.0977496E-1,7.689555E-2,9.7368054E-2,-8.966129E-2,6.0818166E-2,-1.3321565E-1],"split_indices":[639,648,651,427,53,640,75,644,0,572,647,139,573,522,643,615,0,6,57,468,53,16,626,10,344,646,453,501,93,22,434,0,0,0,0,646,0,624,0,643,39,6,390,616,589,0,0,50,648,143,622,646,195,293,655,620,32,0,0,0,0,0,0,0,0,0,0,0,0,0,0,0,0,0,0,0,0,0,0,0,0,0,0,0,0,0,0,0,0,0,0,0,0,0,0,0,0,0,0],"split_type":[0,0,0,0,0,0,0,0,0,0,0,0,0,0,0,0,0,0,0,0,0,0,0,0,0,0,0,0,0,0,0,0,0,0,0,0,0,0,0,0,0,0,0,0,0,0,0,0,0,0,0,0,0,0,0,0,0,0,0,0,0,0,0,0,0,0,0,0,0,0,0,0,0,0,0,0,0,0,0,0,0,0,0,0,0,0,0,0,0,0,0,0,0,0,0,0,0,0,0],"sum_hessian":[2.9580132E3,1.3515092E3,1.6065042E3,1.00487506E3,3.4663403E2,1.2040697E3,4.0243442E2,1.00386816E3,1.0069207E0,1.2515912E2,2.2147491E2,4.2875488E2,7.753149E2,2.607354E2,1.4169902E2,9.9918835E2,4.6797695E0,1.3519883E1,1.1163923E2,1.620634E2,5.941152E1,3.323097E2,9.64452E1,1.2333675E1,7.629812E2,9.223244E1,1.6850298E2,8.08147E1,6.088432E1,2.1821346E0,9.970062E2,2.6203816E0,2.0593877E0,1.2334481E1,1.1854026E0,3.90934E1,7.254583E1,1.5960785E2,2.4555547E0,2.6499588E1,3.291193E1,2.3268173E0,3.2998288E2,5.971031E1,3.673489E1,9.635206E0,2.6984682E0,6.5056043E0,7.564756E2,5.996319E1,3.2269253E1,1.6475421E2,3.7487688E0,7.076467E1,1.0050026E1,5.0280674E1,1.0603644E1,1.1813438E0,1.0007907E0,9.9308057E2,3.9256794E0,1.3874088E1,2.521931E1,3.2069836E0,6.933885E1,2.4338124E0,1.5717404E2,1.4527057E0,2.5046883E1,3.1452337E1,1.4595938E0,1.3006476E0,1.0261698E0,9.930647E0,3.2005222E2,3.30098E1,2.6700512E1,1.4596502E0,3.5275238E1,1.148696E0,5.3569083E0,1.6216466E0,7.5485394E2,4.665642E1,1.3306765E1,2.6592535E1,5.676717E0,9.4073784E1,7.068042E1,1.0002017E0,2.7485673E0,3.7568414E0,6.700783E1,2.870952E0,7.179075E0,4.453476E1,5.7459173E0,1.5109043E0,9.09274E0],"tree_param":{"num_deleted":"0","num_feature":"660","num_nodes":"99","size_leaf_vector":"1"}},{"base_weights":[-2.921659E-3,-9.18027E-1,7.86723E-1,-1.0157303E0,6.9802976E-1,4.0896806E-1,1.0533128E0,-1.1173955E0,-5.4527336E-1,-1.0786952E-1,9.2064774E-1,7.883173E-1,-2.7647156E-1,8.69134E-1,1.1282437E0,-1.1268138E0,2.1981424E-1,8.073051E-1,-1.0490973E0,1.0005865E0,-1.16936706E-1,4.9609458E-1,9.950831E-1,7.38775E-2,-9.064005E-1,1.0683519E0,3.9012268E-1,-2.1283178E-2,1.1315881E0,-1.1333292E0,5.608943E-1,1.07943855E-1,-1.1699307E-1,-1.1140228E-1,1.1754538E0,-1.1212201E0,4.6940666E-1,-8.6847186E-2,1.1470317E0,-1.1730541E-1,8.883903E-1,-7.279767E-1,1.0186622E0,-9.706743E-1,5.024224E-1,-1.1032555E0,7.152322E-1,1.0924847E0,-1.17833756E-1,6.8854827E-1,-9.542655E-1,-3.0356307E-2,1.1345551E0,-1.1441755E-1,-1.8721117E-2,-2.5761507E-3,9.000098E-2,-1.1635437E-1,8.519851E-2,-8.549575E-2,1.2619059E-1,-1.1462456E-1,-3.2169532E-2,1.0329761E-1,-8.2392626E-2,7.185451E-2,-9.879E-2,-9.437499E-3,1.1723184E-1,-8.8701464E-2,5.297206E-2,-1.22203045E-1,9.546628E-2,2.0081304E-4,-1.01868115E-1,-4.702727E-2,1.0401296E-1,-1.2042693E-1,4.6465863E-2,-3.042247E-2,7.3128425E-2,-1.1955601E-1,6.987067E-2,1.06750205E-1,-7.703116E-2,1.115644E-1,2.938429E-2,-1.3116357E-1,8.7094195E-2,-1.7670538E-1,8.3238676E-2,1.1360901E-1,1.9926379E-2],"categories":[],"categories_nodes":[],"categories_segments":[],"categories_sizes":[],"default_left":[0,0,0,0,0,0,0,0,0,0,0,0,0,0,0,0,0,0,0,0,0,0,0,0,0,0,0,0,0,0,0,0,0,0,0,0,0,0,0,0,0,0,0,0,0,0,0,0,0,0,0,0,0,0,0,0,0,0,0,0,0,0,0,0,0,0,0,0,0,0,0,0,0,0,0,0,0,0,0,0,0,0,0,0,0,0,0,0,0,0,0,0,0],"id":14,"left_children":[1,3,5,7,9,11,13,15,17,-1,19,21,23,25,27,29,31,33,35,37,-1,39,41,43,45,47,49,-1,51,53,55,-1,-1,57,59,61,63,65,67,69,71,73,75,77,79,81,83,85,-1,87,89,-1,91,-1,-1,-1,-1,-1,-1,-1,-1,-1,-1,-1,-1,-1,-1,-1,-1,-1,-1,-1,-1,-1,-1,-1,-1,-1,-1,-1,-1,-1,-1,-1,-1,-1,-1,-1,-1,-1,-1,-1,-1],"loss_changes":[1.990767E3,2.0219946E2,1.484992E2,5.69657E1,3.000336E1,1.5974011E2,1.097583E1,1.2702026E1,1.4794743E2,0E0,1.2149773E1,2.3384277E1,4.846741E1,2.3907272E1,2.987793E0,1.1435425E1,1.0525197E1,2.0136436E1,1.7798645E1,1.0265446E1,0E0,3.9988876E1,1.0103882E1,6.3986507E1,2.5834297E1,1.10169525E1,3.1327305E1,0E0,2.9466553E0,9.829224E0,9.0766895E-1,0E0,0E0,1.9069286E1,8.506416E0,2.6496582E0,6.577123E0,6.8827314E0,1.878891E0,3.310892E1,1.532225E1,7.8596497E-1,7.7687073E0,1.4510246E1,1.8913399E1,1.2537682E1,5.5842953E0,2.9655914E0,0E0,2.4177261E1,2.2245607E1,0E0,6.49353E-1,0E0,0E0,0E0,0E0,0E0,0E0,0E0,0E0,0E0,0E0,0E0,0E0,0E0,0E0,0E0,0E0,0E0,0E0,0E0,0E0,0E0,0E0,0E0,0E0,0E0,0E0,0E0,0E0,0E0,0E0,0E0,0E0,0E0,0E0,0E0,0E0,0E0,0E0,0E0,0E0],"parents":[2147483647,0,0,1,1,2,2,3,3,4,4,5,5,6,6,7,7,8,8,10,10,11,11,12,12,13,13,14,14,15,15,16,16,17,17,18,18,19,19,21,21,22,22,23,23,24,24,25,25,26,26,28,28,29,29,30,30,33,33,34,34,35,35,36,36,37,37,38,38,39,39,40,40,41,41,42,42,43,43,44,44,45,45,46,46,47,47,49,49,50,50,52,52],"right_children":[2,4,6,8,10,12,14,16,18,-1,20,22,24,26,28,30,32,34,36,38,-1,40,42,44,46,48,50,-1,52,54,56,-1,-1,58,60,62,64,66,68,70,72,74,76,78,80,82,84,86,-1,88,90,-1,92,-1,-1,-1,-1,-1,-1,-1,-1,-1,-1,-1,-1,-1,-1,-1,-1,-1,-1,-1,-1,-1,-1,-1,-1,-1,-1,-1,-1,-1,-1,-1,-1,-1,-1,-1,-1,-1,-1,-1,-1],"split_conditions":[6.112878E-1,3.9026982E-1,7.3608905E-1,5.255102E-1,4.5071542E-1,4.7582698E-1,7.853736E-1,6.6290724E-1,4.0458015E-1,-1.0786952E-1,3.8931298E-1,6.6248953E-1,3.6906177E-1,6.2559617E-1,6.593472E-2,6.3077825E-1,4.030612E-1,5.7276034E-1,6.1561984E-1,6.0002E-1,-1.16936706E-1,4.5302013E-1,3.810868E-1,4.0696308E-1,2.8073922E-1,6.53944E-1,3.10791E-1,-2.1283178E-2,7.9048425E-2,5.976558E-1,2.5502476E-1,1.07943855E-1,-1.1699307E-1,5.216285E-1,4.274809E-1,6.972881E-1,4.907882E-1,2.1273242E-1,4.714185E-1,3.989068E-1,4.2931074E-1,1.3271217E-1,7.6389074E-2,3.512467E-1,5.488055E-1,6.585598E-1,6.438792E-1,7.170519E-1,-1.17833756E-1,7.029634E-1,6.53944E-1,-3.0356307E-2,5.29428E-1,-1.1441755E-1,-1.8721117E-2,-2.5761507E-3,9.000098E-2,-1.1635437E-1,8.519851E-2,-8.549575E-2,1.2619059E-1,-1.1462456E-1,-3.2169532E-2,1.0329761E-1,-8.2392626E-2,7.185451E-2,-9.879E-2,-9.437499E-3,1.1723184E-1,-8.8701464E-2,5.297206E-2,-1.22203045E-1,9.546628E-2,2.0081304E-4,-1.01868115E-1,-4.702727E-2,1.0401296E-1,-1.2042693E-1,4.6465863E-2,-3.042247E-2,7.3128425E-2,-1.1955601E-1,6.987067E-2,1.06750205E-1,-7.703116E-2,1.115644E-1,2.938429E-2,-1.3116357E-1,8.7094195E-2,-1.7670538E-1,8.3238676E-2,1.1360901E-1,1.9926379E-2],"split_indices":[645,644,645,643,557,9,645,638,9,0,603,616,646,7,478,656,225,57,4,648,0,188,114,70,424,163,519,0,504,658,28,0,0,559,515,648,123,482,312,169,246,436,170,656,435,155,205,54,0,486,9,0,417,0,0,0,0,0,0,0,0,0,0,0,0,0,0,0,0,0,0,0,0,0,0,0,0,0,0,0,0,0,0,0,0,0,0,0,0,0,0,0,0],"split_type":[0,0,0,0,0,0,0,0,0,0,0,0,0,0,0,0,0,0,0,0,0,0,0,0,0,0,0,0,0,0,0,0,0,0,0,0,0,0,0,0,0,0,0,0,0,0,0,0,0,0,0,0,0,0,0,0,0,0,0,0,0,0,0,0,0,0,0,0,0,0,0,0,0,0,0,0,0,0,0,0,0,0,0,0,0,0,0,0,0,0,0,0,0],"sum_hessian":[2.7529753E3,1.2751102E3,1.4778652E3,1.202765E3,7.234512E1,6.124972E2,8.653681E2,9.879047E2,2.1486034E2,7.6271286E0,6.4717995E1,3.9418796E2,2.1830922E2,2.5389574E2,6.1147235E2,9.811516E2,6.7531176E0,5.8149193E1,1.5671114E2,6.2835903E1,1.8820903E0,1.6474814E2,2.294398E2,1.4085326E2,7.745596E1,1.7844943E2,7.544631E1,1.3653097E0,6.1010706E2,9.777057E2,3.445892E0,4.310282E0,2.4428349E0,1.6835056E1,4.1314137E1,1.4985526E2,6.855894E0,7.506094E0,5.5329807E1,6.453739E1,1.00210754E2,2.6940758E0,2.2674573E2,4.060821E1,1.0024505E2,6.935626E1,8.099707E0,1.7706125E2,1.3881788E0,6.2140316E1,1.3305994E1,1.0497031E0,6.090573E2,9.6641724E2,1.12885E1,1.6007293E0,1.8451627E0,7.9475546E0,8.887503E0,1.3242178E0,3.9989918E1,1.4488658E2,4.9686594E0,4.915342E0,1.9405522E0,4.0703883E0,3.4357054E0,1.0499951E0,5.427981E1,2.930497E1,3.523242E1,2.5200868E0,9.769067E1,1.0501494E0,1.6439264E0,2.9256005E0,2.2382013E2,3.5062847E1,5.5453644E0,2.2082767E1,7.816228E1,6.629676E1,3.0594976E0,6.774632E0,1.3250746E0,1.7168575E2,5.3755045E0,4.675554E0,5.7464764E1,9.15304E0,4.152954E0,6.078451E2,1.2122322E0],"tree_param":{"num_deleted":"0","num_feature":"660","num_nodes":"93","size_leaf_vector":"1"}},{"base_weights":[-3.1332644E-3,-8.986741E-1,7.656276E-1,-1.0826527E0,-2.8501412E-1,3.3706075E-1,1.010426E0,-1.0994545E0,1.8263271E-1,3.2013717E-1,-5.4808176E-1,1.2212774E-1,9.97059E-1,8.358994E-1,1.1142039E0,-1.1069831E0,2.596278E-1,-9.9425785E-2,9.859723E-2,-3.0171746E-1,9.0599585E-1,4.848299E-1,-8.52858E-1,6.888412E-1,-2.0115009E-1,-2.3995365E-1,1.0423675E0,1.0070043E0,2.9229975E-1,-2.1541988E-2,1.1179035E0,-1.1197193E0,-5.394041E-1,1.0956295E-1,-7.793053E-2,4.547027E-1,-1.0053487E0,-1.0015168E-1,1.033235E0,6.9371295E-1,-9.8286146E-1,-9.742217E-1,6.367565E-1,-7.792747E-1,9.510845E-1,-9.072177E-1,3.1177515E-1,7.824446E-2,-1.21121466E-1,-6.549525E-2,1.068127E0,1.0412512E0,-3.8815135E-1,-5.404598E-1,7.242961E-1,-2.8545681E-2,1.12118445E-1,2.5191246E-2,-1.1235621E-1,-1.06282175E-1,1.10773735E-1,-9.6858084E-2,9.724407E-2,-1.2546109E-1,8.035381E-2,1.10944666E-1,-9.095763E-2,9.1885775E-2,-1.0851311E-1,-1.2226295E-1,8.858419E-3,-1.1199498E-1,-3.72632E-2,1.0514585E-1,-7.814897E-2,6.636303E-2,-1.1550752E-1,1.0347289E-1,-6.6315345E-2,-1.1518395E-1,-2.2237558E-2,-1.9856134E-2,6.889302E-2,4.0789977E-2,1.1297436E-1,-8.2591735E-2,1.0526401E-1,8.559512E-2,-1.2490993E-1,2.3930545E-3,-1.8612264E-1,9.275138E-2,-3.712739E-2],"categories":[],"categories_nodes":[],"categories_segments":[],"categories_sizes":[],"default_left":[0,0,0,0,0,0,0,0,0,0,0,0,0,0,0,0,0,0,0,0,0,0,0,0,0,0,0,0,0,0,0,0,0,0,0,0,0,0,0,0,0,0,0,0,0,0,0,0,0,0,0,0,0,0,0,0,0,0,0,0,0,0,0,0,0,0,0,0,0,0,0,0,0,0,0,0,0,0,0,0,0,0,0,0,0,0,0,0,0,0,0,0,0],"id":15,"left_children":[1,3,5,7,9,11,13,15,17,19,21,23,25,27,29,31,33,-1,-1,35,37,39,41,43,45,47,49,51,53,-1,55,57,59,-1,-1,61,63,-1,65,67,69,71,73,75,77,79,81,-1,-1,-1,83,85,87,89,91,-1,-1,-1,-1,-1,-1,-1,-1,-1,-1,-1,-1,-1,-1,-1,-1,-1,-1,-1,-1,-1,-1,-1,-1,-1,-1,-1,-1,-1,-1,-1,-1,-1,-1,-1,-1,-1,-1],"loss_changes":[1.7604814E3,1.3304614E2,1.4401575E2,1.9511963E1,4.3763206E1,7.105092E1,1.4921082E1,9.461548E0,1.3045863E1,3.0727407E1,6.0607098E1,6.968606E1,7.150276E0,3.0434723E1,2.9259033E0,5.8430176E0,5.8474503E0,0E0,0E0,2.2438848E1,1.15420685E1,1.4233099E1,2.7377617E1,5.391623E1,8.810589E1,6.0745053E0,5.90036E0,1.2390793E1,2.9352333E1,0E0,2.8272095E0,4.8759766E0,1.9716158E1,0E0,0E0,1.6115963E1,1.079607E1,0E0,7.091118E0,1.6729084E1,1.629364E0,1.161528E1,7.7353E0,1.2414864E1,1.6569374E1,1.6880829E1,2.7315254E1,0E0,0E0,0E0,4.321289E0,6.0821533E0,8.287446E0,2.0968468E1,1.2240711E1,0E0,0E0,0E0,0E0,0E0,0E0,0E0,0E0,0E0,0E0,0E0,0E0,0E0,0E0,0E0,0E0,0E0,0E0,0E0,0E0,0E0,0E0,0E0,0E0,0E0,0E0,0E0,0E0,0E0,0E0,0E0,0E0,0E0,0E0,0E0,0E0,0E0,0E0],"parents":[2147483647,0,0,1,1,2,2,3,3,4,4,5,5,6,6,7,7,8,8,9,9,10,10,11,11,12,12,13,13,14,14,15,15,16,16,19,19,20,20,21,21,22,22,23,23,24,24,25,25,26,26,27,27,28,28,30,30,31,31,32,32,35,35,36,36,38,38,39,39,40,40,41,41,42,42,43,43,44,44,45,45,46,46,50,50,51,51,52,52,53,53,54,54],"right_children":[2,4,6,8,10,12,14,16,18,20,22,24,26,28,30,32,34,-1,-1,36,38,40,42,44,46,48,50,52,54,-1,56,58,60,-1,-1,62,64,-1,66,68,70,72,74,76,78,80,82,-1,-1,-1,84,86,88,90,92,-1,-1,-1,-1,-1,-1,-1,-1,-1,-1,-1,-1,-1,-1,-1,-1,-1,-1,-1,-1,-1,-1,-1,-1,-1,-1,-1,-1,-1,-1,-1,-1,-1,-1,-1,-1,-1,-1],"split_conditions":[5.633803E-1,5.636591E-1,7.0927316E-1,3.9026982E-1,4.365812E-1,3.9026982E-1,7.853736E-1,5.804555E-1,4.9079442E-1,4.9109414E-1,3.776722E-1,5.16046E-1,2.643126E-1,6.2559617E-1,6.615729E-2,4.5743954E-1,1.0699546E-1,-9.9425785E-2,9.859723E-2,2.7480915E-1,7.603353E-2,3.885239E-1,2.9453817E-1,5.898251E-1,6.836248E-1,3.573758E-1,2.4489464E-1,6.965876E-1,7.071836E-1,-2.1541988E-2,7.9048425E-2,1.9759157E-1,5.6766915E-1,1.0956295E-1,-7.793053E-2,5.355054E-1,4.5436162E-1,-1.0015168E-1,5.533723E-1,6.144674E-1,2.7321357E-1,2.144221E-1,4.5547074E-1,1.3418268E-1,4.7149643E-1,2.7924433E-1,4.1966596E-1,7.824446E-2,-1.21121466E-1,-6.549525E-2,5.993195E-1,4.063076E-1,3.1591448E-1,4.248871E-1,3.151508E-1,-2.8545681E-2,1.12118445E-1,2.5191246E-2,-1.1235621E-1,-1.06282175E-1,1.10773735E-1,-9.6858084E-2,9.724407E-2,-1.2546109E-1,8.035381E-2,1.10944666E-1,-9.095763E-2,9.1885775E-2,-1.0851311E-1,-1.2226295E-1,8.858419E-3,-1.1199498E-1,-3.72632E-2,1.0514585E-1,-7.814897E-2,6.636303E-2,-1.1550752E-1,1.0347289E-1,-6.6315345E-2,-1.1518395E-1,-2.2237558E-2,-1.9856134E-2,6.889302E-2,4.0789977E-2,1.1297436E-1,-8.2591735E-2,1.0526401E-1,8.559512E-2,-1.2490993E-1,2.3930545E-3,-1.8612264E-1,9.275138E-2,-3.712739E-2],"split_indices":[649,639,638,644,24,644,645,590,618,647,646,2,395,51,456,480,42,0,0,9,36,629,36,645,645,549,285,76,376,0,504,659,572,0,0,550,414,0,365,227,326,6,53,592,624,216,48,0,0,0,516,525,646,197,519,0,0,0,0,0,0,0,0,0,0,0,0,0,0,0,0,0,0,0,0,0,0,0,0,0,0,0,0,0,0,0,0,0,0,0,0,0,0],"split_type":[0,0,0,0,0,0,0,0,0,0,0,0,0,0,0,0,0,0,0,0,0,0,0,0,0,0,0,0,0,0,0,0,0,0,0,0,0,0,0,0,0,0,0,0,0,0,0,0,0,0,0,0,0,0,0,0,0,0,0,0,0,0,0,0,0,0,0,0,0,0,0,0,0,0,0,0,0,0,0,0,0,0,0,0,0,0,0,0,0,0,0,0,0],"sum_hessian":[2.5551423E3,1.1801727E3,1.3749695E3,9.0737305E2,2.727997E2,5.00727E2,8.742425E2,8.9561127E2,1.1761801E1,8.2591736E1,1.90208E2,3.786138E2,1.22113174E2,3.293755E2,5.44867E2,8.908619E2,4.7493763E0,4.6751137E0,7.086687E0,4.0300312E1,4.229142E1,4.3202026E1,1.4700597E2,1.3711581E2,2.41498E2,4.1628556E0,1.1795032E2,2.4987248E2,7.9503006E1,1.3530371E0,5.43514E2,8.703587E2,2.0503202E1,2.6014705E0,2.1479056E0,1.959211E1,2.0708202E1,2.2149363E0,4.0076485E1,3.8281162E1,4.920863E0,1.3625113E2,1.0754828E1,2.0481684E1,1.1663414E2,1.01293564E2,1.4020444E2,2.122748E0,2.0401077E0,1.398173E0,1.1655215E2,2.4413339E2,5.73908E0,2.7069683E1,5.2433323E1,1.0671567E0,5.4244684E2,2.2513313E0,8.6810736E2,1.58281765E1,4.675025E0,4.993626E0,1.4598484E1,1.8469543E1,2.238659E0,3.897648E1,1.1000046E0,3.4409477E1,3.871687E0,3.9057357E0,1.0151273E0,1.0898833E2,2.7262804E1,8.521671E0,2.2331567E0,4.0738845E0,1.6407799E1,1.1122959E2,5.4045453E0,7.413208E1,2.716148E1,5.9783558E1,8.0420876E1,1.0599312E1,1.05952835E2,1.0464809E0,2.4308691E2,2.349609E0,3.389471E0,1.9653307E1,7.4163766E0,4.4358624E1,8.074699E0],"tree_param":{"num_deleted":"0","num_feature":"660","num_nodes":"93","size_leaf_vector":"1"}},{"base_weights":[-3.3555087E-3,-8.779474E-1,7.448951E-1,-9.7749263E-1,6.717537E-1,3.7577578E-1,1.0139515E0,-1.0822184E0,-5.139337E-1,-1.0334077E-1,8.8040584E-1,7.5547826E-1,-2.493716E-1,8.1735104E-1,1.0979707E0,-1.0919263E0,1.815828E-1,7.4981266E-1,-1.0014343E0,-3.9520022E-1,9.9470115E-1,1.8796207E-1,8.528746E-1,-4.35248E-1,8.551988E-1,1.0260267E0,3.4463865E-1,-2.3164531E-2,1.101842E0,-1.1059829E0,-1.6566338E-1,1.0213226E-1,-1.11280836E-1,-1.0006301E-1,1.0849993E0,-1.1226836E0,-1.2576933E-1,-1.19433835E-1,7.482931E-2,-1.6425163E-1,1.0917461E0,-1.2070826E0,6.362812E-1,-3.1691693E-2,9.317019E-1,-1.2098453E0,-3.4197863E-2,-4.66955E-1,1.0782818E0,1.0522099E0,-1.127995E-1,-1.6489277E0,5.118622E-1,-2.6847694E-2,1.1052599E0,-1.1130085E-1,5.246487E-2,1.0785736E-1,-1.02880776E-1,-1.0422967E-1,8.082692E-2,-7.110243E-2,1.1719393E-1,-1.1355156E-1,1.6370844E-2,-1.0377449E-1,9.9486634E-2,7.439786E-2,-8.4350005E-2,-5.8551254E-3,1.1203241E-1,-1.51333E-1,7.214317E-2,7.975105E-2,-1.0353177E-1,-1.2648505E-1,9.2816666E-2,-1.0443325E-1,9.528768E-2,-1.3345851E-1,3.0236755E-2,-1.0947038E-1,3.55537E-2,-9.860782E-2,6.487437E-2,1.13271736E-1,-7.84124E-3,-5.981988E-3,1.0711881E-1,-1.9873576E-1,-1.497288E-2,-1.22701265E-1,6.7602806E-2,1.10705316E-1,1.4884882E-2],"categories":[],"categories_nodes":[],